1.0000	-0.0000	-0.0000	-0.0000	-0.0000	-0.0000	0.1375	-0.0214	-0.0191	0.0083	-0.8174	-0.0000	-0.0000	-0.0000	-0.0000	-0.0611	0.0473	-0.0122	-0.0311	-0.0135
2.0000	-0.0000	-0.0000	-0.0000	-0.0000	-0.0000	-0.1388	0.0483	-0.1231	-0.1245	-0.5930	-0.0000	-0.0000	-0.0000	-0.0000	-0.0795	-0.0966	-0.0799	-0.1083	-0.5705
3.0000	-0.0000	-0.0000	-0.1822	-0.1803	-0.1462	-0.1821	-0.1803	-0.1642	-0.1425	-0.9767	-0.0000	-0.1449	-0.1687	-0.1703	-0.1534	-0.1706	-0.1474	-0.1705	-0.9140
4.0000	-0.0000	-0.0000	-0.0000	-0.0343	-0.0337	-0.0177	-0.0140	0.0633	-0.0171	0.1607	-0.0000	-0.0000	-0.0323	0.0195	0.0427	0.0490	0.0807	0.0499	0.0027
5.0000	-0.0000	-0.0000	-0.0000	-0.0000	0.0834	0.0040	0.5395	0.0856	-0.0024	-0.1564	-0.0000	-0.0000	-0.0000	0.0167	0.0861	0.4474	0.3281	0.0695	-0.2634
6.0000	0.0432	0.0036	0.0474	0.0431	-0.0080	0.0453	0.0672	0.0625	0.0115	-0.2583	0.0790	0.0998	0.0650	0.0246	-0.0203	0.0780	0.1041	0.0815	0.0463
7.0000	-0.0000	-0.0000	-0.0000	-0.0000	-0.0000	-0.0000	0.3002	0.3399	0.4296	0.9648	-0.0000	-0.0000	-0.0000	-0.0000	-0.0000	0.2596	0.2707	0.4498	1.0309
8.0000	-0.0000	-0.0000	-0.0000	-0.0000	-0.0770	-0.0581	-0.0688	-0.0704	0.1954	-0.2021	-0.0000	-0.0000	-0.0000	0.0073	0.0274	-0.0356	-0.0494	-0.0068	0.3284
9.0000	-0.0000	-0.0000	-0.0000	-0.0000	-0.0000	0.2733	0.2483	0.0613	-0.0020	0.3079	-0.0000	-0.0000	-0.0000	-0.0000	0.0856	0.2586	0.1548	0.1039	0.1584
10.0000	-0.0430	-0.0379	0.0079	-0.0125	-0.0466	-0.0547	-0.0064	-0.0547	-0.0557	-0.3248	-0.0133	0.0000	0.0811	0.0255	-0.0375	0.0022	-0.0136	-0.0327	-0.3433
11.0000	-0.0000	-0.0000	-0.0000	-0.0000	-0.0497	-0.0482	-0.0825	-0.0890	0.0705	-0.4047	-0.0000	-0.0000	-0.0000	0.0025	-0.0130	-0.0114	-0.0409	-0.0002	0.1269
12.0000	-0.0000	-0.0000	-0.0000	-0.0000	-0.0000	-0.1376	-0.1534	-0.1517	-0.0655	-0.3592	-0.0000	-0.0000	-0.0000	-0.0000	-0.1277	-0.1276	-0.1007	-0.1072	-0.1984
13.0000	-0.0000	-0.0000	-0.1358	-0.1478	-0.1227	-0.1628	-0.1499	-0.1694	-0.1547	-0.6629	-0.0000	-0.1226	-0.1269	-0.1316	-0.1238	-0.1308	-0.1262	-0.1442	-0.6179
14.0000	-0.0000	-0.0000	-0.0000	-0.0000	-0.0000	-0.1413	-0.1521	-0.1346	-0.1467	-0.4024	-0.0000	-0.0000	-0.0000	-0.0000	0.0009	-0.0810	-0.0649	-0.0643	-0.2845
15.0000	-0.0000	-0.0000	-0.0000	-0.0000	-0.0000	-0.0000	0.1683	0.0033	0.0223	0.3978	-0.0000	-0.0000	-0.0000	-0.0000	-0.0000	0.1429	0.0703	0.0802	0.2496
16.0000	-0.0000	-0.0000	-0.0000	-0.0000	-0.0000	-0.0000	-0.2217	-0.1902	-0.2126	-1.1456	-0.0000	-0.0000	-0.0000	-0.0000	-0.0000	-0.2414	-0.2359	-0.2407	-0.9452
17.0000	0.0000	0.0000	0.0151	0.2276	-0.0110	0.0655	0.2619	0.0312	0.3108	0.2100	0.0000	0.0792	0.0235	0.0940	0.0690	0.1441	0.1271	0.3235	0.6358
18.0000	-0.0000	-0.0000	-0.0000	-0.0000	-0.0000	-0.0000	-0.2213	-0.2198	-0.2034	-0.6229	-0.0000	-0.0000	-0.0000	-0.0000	-0.0000	-0.1942	-0.1782	-0.1942	-0.4155
19.0000	-0.0000	-0.0000	-0.0000	-0.0000	-0.0000	-0.0000	0.0031	0.1288	-0.0515	-0.5177	-0.0000	-0.0000	-0.0000	-0.0000	-0.0000	-0.0675	0.2442	0.1592	-0.2711
20.0000	-0.0000	-0.0000	-0.0000	-0.0000	-0.0000	-0.0000	-0.0768	0.0569	-0.0566	0.0837	-0.0000	-0.0000	-0.0000	-0.0000	-0.0000	-0.0274	-0.0531	-0.0365	0.5384
21.0000	-0.0000	-0.0000	-0.0000	-0.0000	-0.0000	-0.0000	-0.0440	-0.0659	0.2673	-0.5221	-0.0000	-0.0000	-0.0000	-0.0000	-0.0000	0.0067	-0.0464	0.0088	-0.0276
22.0000	-0.0000	-0.0000	-0.0000	-0.0000	-0.0000	-0.0000	0.3455	-0.0748	-0.0872	0.0162	-0.0000	-0.0000	-0.0000	-0.0000	-0.0000	0.0411	-0.0731	-0.0748	-0.0295
23.0000	-0.0000	-0.0000	-0.0000	-0.0000	-0.0000	-0.0000	-0.0936	-0.1995	-0.0728	-0.4691	-0.0000	-0.0000	-0.0000	-0.0000	-0.0000	-0.1526	-0.1606	-0.0677	-0.1065
24.0000	-0.0000	-0.0000	-0.0000	-0.0000	-0.0000	-0.0000	-0.0458	0.0243	0.1079	0.4448	-0.0000	-0.0000	-0.0000	-0.0000	-0.0000	-0.0219	0.0296	0.1270	0.5590
25.0000	0.0000	0.0000	0.0000	0.0000	0.0000	-0.0334	-0.0231	0.2123	0.1577	0.2994	0.0000	0.0000	0.0000	0.0000	0.1390	0.0515	0.0641	0.2078	0.3433
26.0000	-0.0000	-0.0000	-0.0000	-0.0000	-0.0000	-0.0000	-0.1575	-0.1691	-0.1725	-0.4009	-0.0000	-0.0000	-0.0000	-0.0000	-0.0000	-0.1354	-0.1392	-0.1475	-0.2639
27.0000	-0.0696	-0.0742	-0.0747	-0.0697	-0.0624	-0.0342	-0.0633	-0.0743	0.0055	-0.1249	-0.0533	-0.0542	-0.0741	-0.0702	-0.0761	-0.0754	-0.0747	-0.0690	0.0151
28.0000	-0.0000	-0.0000	-0.0000	-0.0000	-0.0000	-0.0000	-0.0635	0.1957	0.0171	0.7277	-0.0000	-0.0000	-0.0000	-0.0000	-0.0000	-0.0725	0.2350	0.0325	0.3327
29.0000	-0.0000	-0.0000	-0.0000	-0.0000	-0.0791	-0.0173	-0.0735	0.0423	-0.0116	-0.0872	-0.0000	-0.0000	-0.0000	-0.0799	-0.0174	-0.0764	-0.0718	0.0360	-0.0567
30.0000	-0.0254	-0.0516	-0.0477	-0.0199	0.0121	-0.0360	-0.0121	-0.0469	-0.0026	-0.6492	-0.0474	-0.0533	-0.0126	0.0176	-0.0211	-0.0070	-0.0203	-0.0292	-0.3098
31.0000	-0.0000	-0.0000	-0.0000	-0.0000	-0.2031	-0.2145	-0.1748	-0.2113	-0.2351	-0.6043	-0.0000	-0.0000	-0.0000	-0.2723	-0.2499	-0.1594	-0.2383	-0.2603	-0.8318
32.0000	-0.0000	-0.0000	-0.0000	-0.1276	-0.1287	-0.1220	-0.1083	-0.1286	-0.1284	-0.6116	-0.0000	-0.0000	-0.1019	-0.1049	-0.0835	-0.1038	-0.1064	-0.1065	-0.3262
33.0000	-0.0000	-0.0000	-0.0000	-0.0000	-0.0000	-0.0000	-0.0641	0.0324	-0.0886	-0.0914	-0.0000	-0.0000	-0.0000	-0.0000	-0.0000	0.0282	0.0594	-0.0025	0.3255
34.0000	-0.0000	-0.0000	-0.0000	-0.0000	-0.0000	-0.0000	-0.1528	-0.1845	-0.1788	-0.5718	-0.0000	-0.0000	-0.0000	-0.0000	-0.0000	-0.1229	-0.1512	-0.1526	-0.4574
35.0000	-0.0000	-0.0000	-0.0000	-0.0826	-0.0965	-0.0636	-0.1021	-0.1020	-0.0095	-0.3285	-0.0000	-0.0000	-0.1228	-0.1206	-0.1128	-0.1230	-0.1227	-0.1131	-0.4389
36.0000	-0.0123	0.0427	-0.0193	-0.0058	-0.0085	0.0938	0.1159	0.2989	-0.0134	0.9330	-0.0033	0.0078	-0.0162	-0.0060	0.0883	0.1543	0.1544	0.0019	0.9079
37.0000	-0.0000	-0.0000	-0.0000	-0.0000	-0.0000	-0.0000	-0.0132	-0.1865	-0.1893	-0.8669	-0.0000	-0.0000	-0.0000	-0.0000	-0.0000	-0.1238	-0.0944	-0.1745	-0.8219
38.0000	-0.0703	-0.0706	-0.0663	-0.0703	-0.0498	-0.0624	-0.0488	0.0383	-0.0683	-0.4827	-0.0517	-0.0406	-0.0517	-0.0487	-0.0390	0.0687	0.0694	-0.0019	-0.1159
39.0000	-0.0108	0.0058	0.0125	-0.0105	0.0032	0.0959	-0.0163	0.1340	0.0492	1.3344	0.0139	0.0096	0.0214	0.0374	0.0274	0.0975	0.1458	0.1063	0.7081
40.0000	0.0000	0.0000	0.0000	0.0000	0.0000	0.0000	0.1860	0.3930	0.0752	0.5416	0.0000	0.0000	0.0000	0.0000	0.0000	0.4848	0.1586	0.3320	0.6278
41.0000	-0.0000	-0.0000	-0.0000	-0.0000	-0.0000	-0.0000	-0.1838	-0.1822	-0.1843	-0.4610	-0.0000	-0.0000	-0.0000	-0.0000	-0.0000	-0.0154	-0.1042	-0.1362	-0.4018
42.0000	-0.0000	-0.0000	-0.0000	-0.0000	-0.0000	-0.1174	-0.1098	0.1457	-0.1057	-0.5494	-0.0000	-0.0000	-0.0000	-0.0000	-0.1060	-0.1056	0.1537	-0.0313	-0.4991
43.0000	-0.0000	-0.0000	-0.0000	0.0107	-0.0570	-0.0477	-0.0517	-0.0262	-0.0610	0.5620	-0.0000	-0.0000	-0.0252	0.0064	-0.0349	-0.0369	-0.0188	-0.0663	-0.1706
44.0000	-0.0520	-0.0267	-0.0399	0.0075	-0.0571	-0.0519	-0.0567	-0.0529	-0.0387	0.2422	-0.0396	-0.0641	-0.0553	-0.0378	-0.0695	-0.0624	-0.0675	-0.0630	-0.0512
45.0000	-0.0000	-0.0000	-0.0000	-0.5307	-0.5499	-0.4499	-0.2831	-0.3484	-0.3257	-1.6461	-0.0000	-0.0000	-0.4719	-0.4121	-0.3367	-0.1935	-0.2490	-0.2687	-1.2779
46.0000	-0.0000	-0.0000	-0.0000	-0.0000	-0.0000	-0.0000	0.4341	0.2162	0.3154	0.5393	-0.0000	-0.0000	-0.0000	-0.0000	-0.0000	0.2427	0.3919	0.3296	0.9238
47.0000	-0.0000	-0.0000	-0.0000	-0.0000	-0.0000	-0.0000	0.2362	0.3465	0.3673	1.1263	-0.0000	-0.0000	-0.0000	-0.0000	-0.0000	0.1504	0.4789	0.4303	1.1360
48.0000	0.1192	-0.0237	-0.0212	0.0320	0.1741	0.0081	-0.0057	0.1205	-0.0232	0.2844	0.0256	-0.0201	-0.0099	0.1465	0.1057	0.0516	0.0388	0.1150	0.2274
49.0000	0.0265	0.0138	0.1978	-0.0069	0.1426	0.0186	-0.0146	0.0823	0.0934	0.4122	0.0532	0.0164	0.0971	0.0796	0.1129	0.0239	0.0530	0.1130	0.5486
50.0000	-0.0000	-0.0000	-0.0000	-0.0000	-0.0000	-0.0000	-0.1619	-0.1659	-0.1587	0.0933	-0.0000	-0.0000	-0.0000	-0.0000	-0.0000	-0.0953	-0.1193	-0.1086	-0.0381
51.0000	-0.0000	-0.0000	-0.0000	-0.0000	-0.0000	-0.1065	-0.1199	-0.1205	-0.0035	0.1639	-0.0000	-0.0000	-0.0000	-0.0000	-0.1317	-0.1296	-0.1286	-0.1092	-0.0216
52.0000	-0.1390	-0.4175	-0.2048	-0.1130	-0.1260	-0.1604	-0.2367	-0.4250	-0.1786	-1.2887	-0.3816	-0.2595	-0.2723	-0.2308	-0.2230	-0.3766	-0.3683	-0.2851	-1.4130
53.0000	0.0000	0.0000	0.0000	0.0000	-0.1445	-0.1487	-0.1447	-0.1480	-0.0841	-0.8024	0.0000	0.0000	0.0000	-0.0821	-0.1132	-0.1218	-0.1211	-0.0726	-0.5234
54.0000	-0.0000	-0.0000	-0.0000	0.0308	-0.0040	0.1547	0.0247	0.0615	-0.0184	0.3111	-0.0000	-0.0000	0.0441	0.0181	0.0315	0.0625	0.1275	0.0919	0.2079
55.0000	0.0157	0.0474	0.0482	0.1256	-0.0018	0.0359	-0.0102	0.0233	0.1107	0.2533	0.0104	0.0087	0.0581	0.0164	0.0641	0.0412	0.0231	0.1294	0.5683
56.0000	-0.0776	-0.0690	-0.0868	-0.0683	-0.0924	-0.0687	-0.0892	-0.0922	-0.0175	-0.3247	-0.0803	-0.0605	-0.0884	-0.0879	-0.0858	-0.0593	-0.0831	-0.0849	-0.0599
57.0000	-0.0000	-0.0000	-0.0000	-0.0000	-0.0000	-0.0000	-0.1480	-0.1519	-0.0326	-0.5236	-0.0000	-0.0000	-0.0000	-0.0000	-0.0000	-0.1944	-0.1866	-0.1799	-0.2397
58.0000	-0.0000	-0.0000	-0.0000	-0.0000	-0.0000	-0.0000	-0.1615	-0.1765	-0.1815	-0.3020	-0.0000	-0.0000	-0.0000	-0.0000	-0.0000	-0.0300	-0.0939	-0.0701	-0.4825
59.0000	-0.0040	-0.0279	-0.0048	-0.0164	0.0032	0.0884	0.0566	0.0269	-0.0241	-0.1178	-0.0091	-0.0001	0.0351	0.0916	0.0411	0.0765	0.0351	-0.0193	-0.1135
60.0000	-0.0000	-0.0000	-0.0000	-0.1255	-0.1319	-0.1361	-0.1277	-0.1322	-0.1058	-0.6164	-0.0000	-0.0000	-0.0987	-0.0972	-0.0749	-0.0962	-0.0872	-0.0839	-0.2422
61.0000	-0.0000	0.0250	0.0063	0.0911	0.0403	-0.0196	0.0085	-0.0038	0.0017	-0.4883	-0.0159	0.0245	0.0776	0.0922	-0.0029	0.0033	0.0793	0.0070	-0.3884
62.0000	-0.0000	-0.0000	-0.0000	-0.0000	-0.0000	-0.2327	-0.1904	-0.2296	-0.2343	-0.7415	-0.0000	-0.0000	-0.0000	-0.0000	-0.1715	-0.1914	-0.1895	-0.1852	-0.6410
63.0000	-0.0000	-0.0000	-0.0000	-0.0000	-0.0000	-0.0000	-0.1276	-0.1888	-0.1766	-0.5983	-0.0000	-0.0000	-0.0000	-0.0000	-0.0000	0.0470	-0.1084	-0.1272	-0.4344
64.0000	0.0665	0.1181	0.1498	0.1184	0.1097	0.1551	0.1314	0.1442	0.2032	0.7914	0.1377	0.1298	0.1592	0.1539	0.1461	0.1347	0.1062	0.1687	0.8705
65.0000	-0.0000	-0.0000	-0.0000	-0.0000	-0.0822	-0.1088	-0.1092	-0.0810	-0.1073	-0.0767	-0.0000	-0.0000	-0.0000	-0.0897	-0.0372	-0.1071	-0.1033	-0.0914	-0.3466
66.0000	0.0000	0.0000	0.0000	0.0000	-0.0213	0.0152	0.1654	0.2664	-0.0109	0.1618	0.0000	0.0000	0.0000	0.0450	0.0104	0.1341	0.3322	0.0154	-0.0527
67.0000	-0.0000	-0.0000	-0.0000	-0.0000	-0.1358	-0.1178	-0.1342	-0.1434	-0.0911	-1.0048	-0.0000	-0.0000	-0.0000	-0.0832	-0.0545	-0.0502	-0.0731	-0.0288	-0.2666
68.0000	0.0000	-0.0302	0.0517	0.0052	0.0557	-0.0030	-0.0049	-0.0285	0.1111	0.1865	-0.0250	0.0382	0.0564	0.0534	0.0652	-0.0033	-0.0092	0.0583	0.4325
69.0000	-0.0000	-0.0000	-0.0000	-0.1673	-0.1632	-0.1702	-0.1841	-0.1835	-0.1818	-0.6878	-0.0000	-0.0000	-0.1133	-0.1729	-0.1558	-0.1668	-0.1611	-0.1583	-0.4818
70.0000	-0.0000	-0.0000	-0.0000	-0.0000	-0.0000	-0.0000	-0.1079	-0.1059	0.3559	-0.3363	-0.0000	-0.0000	-0.0000	-0.0000	-0.0000	0.0390	-0.0648	-0.1041	-0.0530
71.0000	-0.0000	-0.0000	-0.0000	-0.0000	-0.0000	-0.0000	0.1787	-0.0880	-0.0546	0.1553	-0.0000	-0.0000	-0.0000	-0.0000	-0.0000	0.0194	0.0191	-0.0750	0.1010
72.0000	-0.0332	-0.0366	-0.0402	-0.0222	-0.0408	-0.0353	-0.0169	0.0224	0.1322	0.9269	-0.0353	-0.0389	-0.0325	-0.0358	-0.0364	-0.0028	0.0511	0.2125	0.8619
73.0000	-0.0000	-0.0000	-0.0000	0.1322	0.2623	-0.0327	0.0016	-0.0093	-0.0294	0.1717	-0.0000	-0.0000	0.0913	0.2553	0.0764	0.0123	0.0213	-0.0393	-0.0420
74.0000	-0.0000	-0.0000	-0.0000	-0.0000	-0.0000	-0.0000	-0.1926	-0.1429	-0.2241	-0.6189	-0.0000	-0.0000	-0.0000	-0.0000	-0.0000	-0.1490	-0.0992	-0.0570	-0.4355
75.0000	-0.0000	-0.0000	-0.0000	-0.0000	-0.0000	-0.0000	-0.1681	-0.1597	-0.0901	-0.3727	-0.0000	-0.0000	-0.0000	-0.0000	-0.0000	-0.1340	-0.1688	-0.1466	-0.3295
76.0000	-0.0000	-0.0000	-0.0000	-0.0000	-0.0685	-0.0659	-0.0763	-0.0518	-0.0302	0.6368	-0.0000	-0.0000	-0.0000	-0.0841	-0.0836	-0.0845	-0.0742	-0.0628	0.6149
77.0000	-0.0000	-0.0000	-0.0000	-0.0000	-0.0000	-0.0000	-0.1628	-0.1299	-0.1626	-0.3172	-0.0000	-0.0000	-0.0000	-0.0000	-0.0000	-0.0840	-0.1183	-0.0498	-0.1815
78.0000	-0.0000	-0.0000	-0.0000	-0.0000	-0.0000	-0.0000	-0.1388	-0.0917	-0.0898	-0.2814	-0.0000	-0.0000	-0.0000	-0.0000	-0.0000	-0.0816	-0.1288	-0.0802	-0.0985
79.0000	-0.0000	-0.0000	-0.0366	-0.0457	-0.0286	0.0469	0.0393	0.2158	0.0957	-0.4581	-0.0000	-0.0099	0.0107	0.0300	0.0022	0.0685	0.1177	0.1114	-0.1347
80.0000	-0.0000	-0.0000	-0.0000	-0.1134	-0.1100	-0.1130	-0.0675	-0.0380	-0.1098	-0.7660	-0.0000	-0.0000	-0.0985	-0.1125	-0.1123	-0.1135	-0.0435	-0.0817	-0.5150
81.0000	-0.0000	-0.0000	-0.0000	-0.0000	-0.0000	-0.0000	-0.0664	0.0259	-0.0708	1.0269	-0.0000	-0.0000	-0.0000	-0.0000	-0.0000	-0.0477	-0.0044	-0.1050	-0.0294
82.0000	-0.0342	0.0068	0.0897	0.1046	-0.0297	-0.0279	0.0257	0.0611	-0.0396	0.1383	-0.0342	0.0776	0.1025	-0.0385	-0.0298	0.0070	0.0417	0.0042	0.1591
83.0000	0.0000	-0.0715	-0.0756	-0.0774	-0.0747	-0.0667	-0.0772	-0.0327	-0.0542	-0.2624	-0.0339	-0.0310	-0.0556	-0.0560	-0.0495	-0.0285	-0.0455	0.0034	-0.0916
84.0000	-0.0634	0.0642	-0.0296	-0.0629	-0.0543	-0.0443	-0.0418	-0.0634	-0.0634	-0.8107	-0.0098	0.0768	-0.0561	-0.0443	-0.0439	-0.0301	-0.0394	-0.0516	-0.5622
85.0000	-0.0115	-0.0132	-0.0146	0.0029	0.0202	0.1547	0.1933	0.3976	0.2107	1.0124	-0.0151	-0.0141	0.0018	0.0667	0.1232	0.1930	0.3121	0.2883	0.8310
86.0000	-0.0000	-0.0000	-0.0000	-0.2579	-0.1639	-0.1901	-0.2238	-0.1694	-0.2777	-0.7254	-0.0000	-0.0000	-0.2235	-0.2160	-0.1570	-0.1919	-0.1847	-0.2224	-0.5943
87.0000	-0.0000	-0.0000	-0.0000	-0.1390	-0.0874	-0.1195	-0.1459	-0.1437	-0.1182	-0.6528	-0.0000	-0.0000	-0.1341	-0.0930	-0.1318	-0.1293	-0.1362	-0.1368	-0.6709
88.0000	0.0000	0.0000	0.0000	0.0000	0.0000	0.0000	0.9594	0.0534	-0.0245	-0.2455	0.0000	0.0000	0.0000	0.0000	0.0000	0.7029	0.0780	0.0609	0.2078
89.0000	-0.0000	-0.0000	-0.0000	-0.0000	-0.1090	-0.1123	0.0253	-0.1130	-0.1122	-0.3449	-0.0000	-0.0000	-0.0000	-0.0372	-0.0986	-0.0737	-0.0870	-0.1000	-0.3008
90.0000	0.0000	0.0000	0.0000	0.0000	0.0000	0.0000	0.0976	0.1293	0.1077	0.9017	0.0000	0.0000	0.0000	0.0000	0.0000	0.2701	0.1594	0.1467	0.7767
91.0000	-0.0000	-0.0779	-0.0815	-0.0793	-0.0816	-0.0654	-0.0796	-0.0673	-0.0753	-0.3433	-0.0512	-0.0383	-0.0425	-0.0504	-0.0510	-0.0289	-0.0366	-0.0415	0.1086
92.0000	-0.0000	-0.0000	-0.0000	-0.0000	-0.0000	-0.0000	-0.9999	-0.9653	-1.0686	-2.6611	-0.0000	-0.0000	-0.0000	-0.0000	-0.0000	-1.0969	-0.7957	-0.8608	-2.6780
93.0000	-0.0000	-0.0000	-0.0000	-0.0000	-0.0000	-0.0000	-0.0809	-0.1295	-0.0950	0.4276	-0.0000	-0.0000	-0.0000	-0.0000	-0.0000	0.0209	-0.1081	-0.1132	0.1381
94.0000	-0.0000	-0.0000	-0.0000	-0.0000	-0.0000	-0.0551	-0.0012	0.1890	-0.0429	0.7474	-0.0000	-0.0000	-0.0000	-0.0000	-0.0207	0.0128	0.2098	0.1532	0.7216
95.0000	-0.0000	-0.0000	-0.0000	-0.0000	-0.0000	-0.0000	-0.1614	-0.1681	-0.1685	0.0304	-0.0000	-0.0000	-0.0000	-0.0000	-0.0000	-0.1358	-0.1453	-0.1247	0.0109
96.0000	-0.0000	-0.0000	-0.0000	-0.0767	-0.0762	-0.0476	-0.0034	-0.0176	-0.0767	0.0332	-0.0000	-0.0000	-0.0559	-0.0594	-0.0389	0.1001	-0.0083	-0.0289	-0.1442
97.0000	-0.0000	-0.0000	-0.0000	-0.0000	-0.0000	-0.0032	0.0195	0.5861	0.2388	1.1562	-0.0000	-0.0000	-0.0000	-0.0000	-0.0157	0.0302	0.4948	0.3936	1.0439
98.0000	-0.0000	-0.0000	-0.0000	-0.0000	-0.0000	0.1178	-0.0593	0.2844	-0.0615	-0.3296	-0.0000	-0.0000	-0.0000	-0.0000	0.0669	0.0013	0.1090	-0.0297	0.0228
99.0000	-0.0000	-0.0000	-0.0000	-0.0000	-0.0000	-0.0997	-0.0120	0.0122	-0.1010	-0.2345	-0.0000	-0.0000	-0.0000	-0.0000	-0.0588	0.0548	0.1163	0.0836	-0.4545
100.0000	-0.0000	-0.0000	-0.0000	-0.4685	-0.4772	-0.7415	-1.2237	-1.0998	-0.3245	-2.9000	-0.0000	-0.0000	-1.1094	-0.4499	-0.5853	-0.6532	-0.7030	-0.2401	-2.3631
101.0000	-0.0000	-0.0000	-0.0000	-0.0000	-0.0000	-0.0000	-0.1420	-0.1321	-0.0500	-0.2543	-0.0000	-0.0000	-0.0000	-0.0000	-0.0000	-0.0991	-0.1402	-0.1401	-0.4720
102.0000	-0.0000	-0.0000	-0.0000	-0.0000	-0.0000	-0.0581	0.0374	0.3040	0.1503	-0.1749	-0.0000	-0.0000	-0.0000	-0.0000	-0.0333	-0.0392	0.1716	0.2448	0.0722
103.0000	-0.0000	-0.0000	-0.0000	-0.0000	-0.0000	-0.0000	-0.2770	-0.2754	-0.2770	-0.7946	-0.0000	-0.0000	-0.0000	-0.0000	-0.0000	-0.2104	-0.1837	-0.2082	-0.6688
104.0000	-0.0598	-0.0765	-0.1003	-0.0662	-0.0777	-0.0787	-0.0977	-0.0776	-0.1023	0.6082	-0.0725	-0.1021	-0.0932	-0.0783	-0.0686	-0.0688	-0.0857	-0.1023	0.6274
105.0000	-0.0000	-0.0000	-0.0000	-0.0000	-0.0000	-0.0000	-0.1916	-0.2013	-0.2010	-0.2916	-0.0000	-0.0000	-0.0000	-0.0000	-0.0000	-0.2385	-0.1934	-0.2283	-0.7731
106.0000	-0.0000	-0.0000	-0.0000	-0.0000	-0.0000	-0.0000	-0.1350	-0.1904	-0.1924	-0.5228	-0.0000	-0.0000	-0.0000	-0.0000	-0.0000	-0.1055	-0.1126	-0.1286	-0.2363
107.0000	0.0000	0.0000	0.0000	0.2708	0.2180	0.0709	0.2409	0.3595	0.1874	-0.0924	0.0000	0.0000	0.1665	0.2461	0.0768	0.1702	0.3049	0.2083	0.4039
108.0000	0.0000	0.0000	0.0000	0.1567	-0.0093	0.0977	-0.0204	0.0018	0.0785	-0.1507	0.0000	0.0000	0.0761	-0.0043	0.0832	0.0239	0.0754	0.0460	-0.0790
109.0000	-0.0000	-0.0000	-0.0000	-0.0000	-0.0000	-0.0180	0.1107	0.4273	0.3732	0.4262	-0.0000	-0.0000	-0.0000	-0.0000	-0.0072	0.0954	0.3817	0.3843	0.8257
110.0000	-0.0000	-0.0000	-0.0522	0.1632	-0.0472	-0.0709	-0.0680	-0.0699	-0.0684	-0.2902	-0.0000	-0.0187	-0.0009	0.0628	-0.0089	-0.0674	-0.0677	-0.0619	-0.4390
111.0000	0.0000	0.0000	0.0000	-0.0612	0.1030	-0.0756	-0.0665	-0.0704	-0.0575	-0.2153	0.0000	0.0000	-0.0130	0.0274	-0.0055	-0.0163	-0.0266	-0.0408	-0.0334
112.0000	-0.0000	-0.0000	-0.0245	0.0462	-0.0198	0.0938	-0.0172	0.0114	-0.0434	-0.0300	-0.0000	0.0156	0.0615	0.0562	-0.0159	0.0177	0.0178	0.0279	0.0652
113.0000	-0.1030	-0.2030	-0.2722	-0.2376	-0.1327	-0.1909	-0.2389	-0.3544	-0.2110	-1.2515	-0.0920	-0.1904	-0.2071	-0.1356	-0.2454	-0.2598	-0.2851	-0.2407	-0.9954
114.0000	0.0555	0.0635	-0.0089	-0.0103	-0.0155	0.0168	0.0212	0.2231	0.0409	0.3486	0.1415	0.0084	-0.0146	-0.0045	-0.0056	0.0032	0.0616	0.0909	0.3225
115.0000	0.0000	0.0000	0.0000	0.0000	0.0000	-0.1944	-0.1855	-0.1994	-0.1996	-0.4079	0.0000	0.0000	0.0000	0.0000	-0.1902	-0.1625	-0.1807	-0.1877	-0.2672
116.0000	-0.0000	-0.0000	-0.0000	-0.0000	-0.0000	-0.0974	-0.0740	0.0268	-0.1231	-0.8304	-0.0000	-0.0000	-0.0000	-0.0000	-0.0351	0.0035	-0.0642	-0.0921	-0.5200
117.0000	-0.1296	-0.0900	-0.1291	-0.1301	-0.1273	-0.1298	-0.1310	-0.1253	-0.1131	-0.7018	-0.0980	-0.0944	-0.1224	-0.1221	-0.1190	-0.1222	-0.1186	-0.1210	-0.3768
118.0000	-0.0000	-0.0000	-0.0000	-0.0000	-0.0000	0.0119	0.1656	0.0657	0.0082	0.5644	-0.0000	-0.0000	-0.0000	-0.0000	0.2595	0.0128	0.1063	0.0142	0.1883
119.0000	-0.0000	-0.0000	-0.0000	-0.0000	-0.0000	-0.0000	-0.2291	-0.2379	-0.2186	-0.6368	-0.0000	-0.0000	-0.0000	-0.0000	-0.0000	-0.0926	-0.1620	-0.1353	-0.3696
120.0000	-0.0000	-0.0000	-0.0000	-0.0000	-0.0000	-0.0000	-0.2367	-0.2062	-0.2549	-0.3150	-0.0000	-0.0000	-0.0000	-0.0000	-0.0000	-0.2476	-0.2349	-0.2230	-0.4350
121.0000	-0.0000	-0.0000	-0.0000	-0.0000	-0.0000	-0.2366	-0.2284	-0.2487	-0.2391	-1.1116	-0.0000	-0.0000	-0.0000	-0.0000	-0.2310	-0.2503	-0.2502	-0.2495	-0.9440
122.0000	-0.0000	-0.0000	-0.0000	-0.0000	-0.0000	-0.0000	-0.1511	0.0780	-0.1172	-0.8175	-0.0000	-0.0000	-0.0000	-0.0000	-0.0000	-0.1121	-0.0460	0.0673	-0.3516
123.0000	-0.0000	-0.0675	-0.0387	-0.0745	-0.0570	-0.0795	-0.0695	-0.0549	-0.0512	-0.2293	-0.0416	-0.0598	-0.0652	-0.0497	-0.0641	-0.0664	-0.0713	-0.0655	-0.2270
124.0000	0.0000	0.0000	0.0000	0.3622	0.0779	0.2178	-0.0037	0.0261	0.1196	-0.0462	0.0000	0.0000	0.1405	0.1579	0.1590	0.2247	0.0512	0.0514	0.3534
125.0000	-0.0395	-0.0538	-0.0732	-0.0619	-0.0476	-0.0747	-0.0752	-0.0743	-0.0543	-0.7261	-0.0633	-0.0721	-0.0690	-0.0156	-0.0385	-0.0643	-0.0682	-0.0668	-0.3068
126.0000	-0.0000	-0.0000	-0.0000	-0.0000	-0.0000	-0.0000	-0.1765	-0.3424	-0.3445	-0.9146	-0.0000	-0.0000	-0.0000	-0.0000	-0.0000	-0.2797	-0.2944	-0.2980	-0.7527
127.0000	0.0000	0.0000	0.0000	0.0000	0.1176	0.0442	0.4029	-0.0325	-0.0192	-0.4489	0.0000	0.0000	0.0000	0.1555	0.1466	0.1676	0.0528	-0.0186	0.0644
128.0000	0.0000	0.0000	0.0000	0.0000	0.0000	0.0000	-0.0383	0.1416	0.0373	1.8130	0.0000	0.0000	0.0000	0.0000	0.0000	-0.0368	-0.0248	0.2215	0.9367
129.0000	-0.0000	-0.0000	-0.0000	-0.0000	-0.0000	-0.0000	-0.2276	-0.1581	-0.2287	-0.8324	-0.0000	-0.0000	-0.0000	-0.0000	-0.0000	-0.1424	-0.1037	-0.1185	-0.4656
130.0000	-0.0000	-0.0000	-0.0000	-0.0000	-0.0000	-0.0000	0.0066	-0.0137	0.0721	0.0772	-0.0000	-0.0000	-0.0000	-0.0000	-0.0000	-0.0783	0.0430	0.0187	0.1082
131.0000	-0.0000	-0.0000	-0.0000	-0.0000	-0.0000	-0.1290	-0.0500	-0.1054	-0.1211	-0.1303	-0.0000	-0.0000	-0.0000	-0.0000	-0.0763	-0.0987	-0.0930	-0.1246	-0.3365
132.0000	-0.0147	0.0576	-0.0108	0.0280	0.0143	0.0031	-0.0082	-0.0088	0.0444	0.1396	0.0731	0.0467	0.0758	0.0618	0.0815	0.0303	0.0681	-0.0011	0.1719
133.0000	-0.0000	-0.0000	-0.0000	-0.0000	-0.0000	-0.0000	-0.0498	-0.1187	-0.1064	1.1099	-0.0000	-0.0000	-0.0000	-0.0000	-0.0000	-0.1568	-0.2776	-0.2821	-0.3783
134.0000	0.0000	0.0000	-0.0107	0.1049	0.2356	0.2853	0.2760	0.2654	0.2381	0.4911	0.0000	0.0118	0.0515	0.2318	0.2148	0.2619	0.2652	0.2245	0.8156
135.0000	-0.0000	-0.0000	-0.0000	-0.0000	-0.0000	-0.0000	-0.0459	0.2608	0.4048	0.4817	-0.0000	-0.0000	-0.0000	-0.0000	-0.0000	-0.0093	0.0050	0.4270	0.6763
136.0000	0.0000	0.0000	0.0000	0.0000	0.0254	0.0593	0.2806	0.3021	0.4229	1.0579	0.0000	0.0000	0.0000	0.0563	0.0541	0.1998	0.2426	0.3506	1.1034
137.0000	-0.0000	-0.0000	-0.0000	-0.0000	-0.0000	-0.0515	-0.0580	0.1154	-0.0028	0.7505	-0.0000	-0.0000	-0.0000	-0.0000	-0.0701	-0.0778	-0.0515	-0.0344	0.6853
138.0000	-0.0000	-0.0000	-0.0000	-0.0000	-0.0000	-0.0000	-0.2492	-0.4984	-0.2857	-1.0432	-0.0000	-0.0000	-0.0000	-0.0000	-0.0000	-0.4303	-0.4949	-0.4050	-1.1649
139.0000	-0.0140	0.0019	0.0572	0.0722	0.0406	0.1056	0.1764	0.2107	0.1701	0.8981	0.0102	0.1736	0.1261	0.0979	0.1014	0.1205	0.2333	0.1817	0.7943
140.0000	-0.0000	-0.0000	-0.0000	-0.0000	-0.0000	-0.0000	-0.1259	-0.1667	-0.1504	-0.4051	-0.0000	-0.0000	-0.0000	-0.0000	-0.0000	-0.0288	-0.1093	-0.0955	-0.1640
141.0000	-0.0000	-0.0000	-0.0000	-0.0000	-0.0000	-0.0000	-0.1539	-0.0928	-0.1822	-0.3349	-0.0000	-0.0000	-0.0000	-0.0000	-0.0000	-0.1453	-0.1571	-0.1472	-0.3255
142.0000	-0.0000	-0.0000	-0.0000	-0.0000	-0.0405	-0.0380	-0.0107	-0.0062	-0.0196	-0.1518	-0.0000	-0.0000	-0.0000	-0.0284	-0.0133	0.0414	0.0190	0.0029	-0.0417
143.0000	-0.0000	-0.0000	-0.0000	-0.0000	-0.1145	-0.1232	-0.1211	-0.0632	-0.1037	-0.6109	-0.0000	-0.0000	-0.0000	-0.1136	-0.1067	-0.1136	-0.0982	-0.0257	-0.3989
144.0000	-0.0000	-0.0000	-0.0000	-0.0000	-0.0000	-0.0000	-0.1126	0.0618	-0.0915	-0.4779	-0.0000	-0.0000	-0.0000	-0.0000	-0.0000	-0.0817	0.0316	-0.0399	-0.1707
145.0000	-0.0000	-0.0000	-0.0000	-0.0000	-0.0000	-0.1174	-0.1359	-0.0675	-0.1420	-0.7617	-0.0000	-0.0000	-0.0000	-0.0000	-0.1481	-0.1653	-0.1639	-0.1502	-0.5006
146.0000	-0.0000	-0.0000	-0.0000	-0.0000	-0.0000	-0.0000	-0.0055	0.0523	0.0197	0.4629	-0.0000	-0.0000	-0.0000	-0.0000	-0.0000	-0.0103	0.0928	0.0428	0.1951
147.0000	-0.0000	-0.0000	-0.0000	-0.0000	-0.1036	-0.1051	-0.0968	-0.1026	-0.1025	0.4227	-0.0000	-0.0000	-0.0000	-0.1056	-0.1056	-0.1056	-0.1059	-0.1060	0.3668
148.0000	-0.0559	-0.0560	-0.0363	-0.0559	0.0907	-0.0201	-0.0560	-0.0545	-0.0419	-0.0758	-0.0731	-0.0655	-0.0770	-0.0752	-0.0634	-0.0772	-0.0775	-0.0410	-0.0951
149.0000	-0.0000	-0.0000	-0.0000	-0.1616	-0.2456	-0.2313	-0.3022	-0.3000	-0.2752	-1.2248	-0.0000	-0.0000	-0.1719	-0.1801	-0.1947	-0.1965	-0.2029	-0.1999	-0.8598
150.0000	-0.0000	-0.0000	-0.0000	-0.0000	-0.0000	-0.0000	-0.2216	-0.2359	-0.2304	-0.6368	-0.0000	-0.0000	-0.0000	-0.0000	-0.0000	-0.2076	-0.1787	-0.2078	-0.6374
151.0000	-0.0000	-0.0000	-0.0000	-0.0000	-0.0000	-0.0000	0.2710	0.1737	0.0842	0.1959	-0.0000	-0.0000	-0.0000	-0.0000	-0.0000	0.1217	0.1838	0.1988	0.3026
152.0000	-0.0000	-0.0000	-0.0000	-0.0000	-0.0000	-0.0000	0.4723	0.4755	0.3997	0.5489	-0.0000	-0.0000	-0.0000	-0.0000	-0.0000	0.2853	0.4559	0.4265	0.8600
153.0000	-0.0000	-0.0000	-0.0632	-0.0931	-0.0919	0.2651	-0.0836	-0.0931	-0.0879	-0.5830	-0.0000	-0.0608	-0.0585	-0.0274	0.1681	0.2080	-0.0629	-0.0566	-0.6180
154.0000	-0.0116	0.0008	0.0364	0.0738	0.1015	0.1151	0.0625	0.1588	0.2430	0.3423	-0.0003	0.0382	0.0829	0.1285	0.1633	0.1163	0.1348	0.1833	0.3771
155.0000	-0.0000	-0.0000	-0.0000	-0.0000	-0.0000	-0.0000	-0.0195	0.0281	0.1558	0.5592	-0.0000	-0.0000	-0.0000	-0.0000	-0.0000	0.2478	0.0941	0.1373	-0.2257
156.0000	-0.0000	-0.0000	0.0710	0.0693	0.0386	0.0255	0.1471	0.2196	-0.0259	0.1003	-0.0000	0.0577	0.1005	0.1135	0.0483	0.1112	0.2563	0.0356	-0.1391
157.0000	-0.0000	-0.0000	-0.0000	-0.0522	-0.0527	0.0077	-0.0266	-0.0269	-0.0599	0.5260	-0.0000	-0.0000	-0.0603	-0.0511	-0.0010	0.0561	-0.0509	-0.0717	-0.0834
158.0000	-0.0000	-0.0000	-0.0000	-0.1767	-0.1528	-0.2264	-0.2320	-0.1752	-0.1718	-0.6742	-0.0000	-0.0000	-0.2000	-0.1379	-0.1919	-0.2130	-0.2064	-0.1918	-0.6597
159.0000	-0.0000	-0.0000	-0.0000	-0.0000	-0.0000	-0.1148	0.1785	-0.1070	-0.1121	-0.3179	-0.0000	-0.0000	-0.0000	-0.0000	-0.1337	-0.1150	-0.0386	-0.1274	-0.4643
160.0000	-0.0563	-0.0392	-0.0438	-0.0502	-0.0568	-0.0456	-0.0467	-0.0505	-0.0565	1.6271	-0.0466	-0.0375	-0.0513	-0.0529	-0.0548	-0.0513	-0.0544	-0.0548	1.6489
161.0000	-0.0954	-0.0945	-0.0963	-0.0850	-0.0947	-0.0934	-0.0968	-0.0936	-0.0513	-1.0278	-0.1368	-0.1290	-0.1025	-0.1229	-0.1439	-0.1430	-0.1412	-0.1389	-0.6305
162.0000	-0.0000	-0.0000	-0.0000	-0.0000	-0.0000	-0.0000	-0.2145	-0.2263	-0.2294	-0.3825	-0.0000	-0.0000	-0.0000	-0.0000	-0.0000	-0.0783	-0.1394	-0.1357	-0.0994
163.0000	0.0000	0.0000	0.0000	0.0409	-0.0153	0.2645	-0.0355	-0.0122	0.0016	-0.0316	0.0000	0.0000	0.1926	0.0163	0.0110	0.0240	-0.0097	0.0744	0.4426
164.0000	-0.0000	-0.0000	-0.0000	-0.0000	-0.0000	-0.0000	-0.0815	-0.1337	0.0486	-0.3771	-0.0000	-0.0000	-0.0000	-0.0000	-0.0000	-0.1863	-0.1871	-0.1948	-0.3991
165.0000	-0.0000	-0.0000	-0.0000	-0.0000	0.0916	0.0753	0.2437	0.0724	0.0397	0.4091	-0.0000	-0.0000	-0.0000	0.0858	0.0572	0.1074	0.1415	0.0868	0.3199
166.0000	-0.0000	-0.0000	-0.0000	-0.0000	-0.0337	0.0729	-0.0375	0.4801	-0.0457	0.2942	-0.0000	-0.0000	-0.0000	0.0519	-0.0030	-0.0367	0.2002	0.0266	0.0765
167.0000	-0.0000	-0.0000	-0.0000	-0.0000	-0.0000	-0.0935	-0.0926	-0.0941	-0.0844	0.8089	-0.0000	-0.0000	-0.0000	-0.0000	-0.1621	-0.1625	-0.1586	-0.1398	-0.3015
168.0000	-0.0000	-0.0000	-0.0000	-0.0000	0.1653	0.0268	0.1663	0.1142	-0.0070	0.5625	-0.0000	-0.0000	-0.0000	0.1950	0.1149	0.1060	0.1301	0.0657	0.3494
169.0000	-0.0000	-0.0000	-0.0000	-0.0000	-0.0000	-0.0000	-0.3685	-0.2950	-0.3543	-0.9778	-0.0000	-0.0000	-0.0000	-0.0000	-0.0000	-0.3414	-0.3271	-0.3021	-0.9429
170.0000	-0.0000	-0.0000	-0.0000	-0.0000	-0.0000	-0.0745	-0.0668	-0.0720	-0.0798	1.3147	-0.0000	-0.0000	-0.0000	-0.0000	-0.0979	-0.1167	-0.1141	-0.1123	0.4805
171.0000	-0.0000	-0.0000	-0.0000	-0.0000	-0.0000	-0.0000	-0.1760	-0.2046	-0.1938	0.0383	-0.0000	-0.0000	-0.0000	-0.0000	-0.0000	-0.1623	-0.1702	-0.1708	-0.0138
172.0000	-0.0000	-0.0000	-0.0000	-0.0000	-0.0000	-0.0000	-0.1319	-0.0821	-0.1061	0.0587	-0.0000	-0.0000	-0.0000	-0.0000	-0.0000	-0.1512	-0.2392	-0.2200	-0.8943
173.0000	0.1420	0.1493	0.0502	-0.0144	0.1581	-0.0185	0.1148	0.0715	0.0691	0.3359	0.1530	0.0751	0.0073	0.0840	0.1440	0.0383	0.0552	0.0928	0.3768
174.0000	-0.0000	-0.0000	-0.0000	-0.0000	-0.0000	-0.0000	-0.1140	-0.1024	0.2872	-0.0881	-0.0000	-0.0000	-0.0000	-0.0000	-0.0000	-0.0674	-0.0836	0.0685	0.3682
175.0000	-0.0000	-0.0000	-0.0931	-0.0901	0.0073	-0.0898	-0.0961	-0.0962	-0.0667	-0.5665	-0.0000	-0.0706	-0.0755	0.0086	-0.0393	-0.0715	-0.0744	-0.0763	-0.4307
176.0000	0.0568	-0.0281	0.1029	0.2020	0.2060	-0.0095	0.0200	-0.0275	-0.0256	-0.5770	-0.0204	-0.0060	0.1514	0.3202	0.0605	0.0306	-0.0157	-0.0316	-0.5082
177.0000	-0.0000	-0.0213	-0.0485	-0.0305	-0.0547	-0.0389	-0.0520	0.0220	-0.0101	-0.1314	-0.0462	-0.0360	-0.0334	-0.0307	-0.0386	-0.0361	0.0036	0.0288	-0.0345
178.0000	0.0000	0.0000	0.0000	0.0000	0.0000	0.0000	-0.1570	-0.2089	-0.2053	-0.6770	0.0000	0.0000	0.0000	0.0000	0.0000	-0.2412	-0.2434	-0.2435	-0.6694
179.0000	-0.0000	-0.0000	-0.0000	-0.0000	-0.0000	-0.0000	-0.1664	-0.1843	-0.0409	-0.5848	-0.0000	-0.0000	-0.0000	-0.0000	-0.0000	-0.1527	-0.1526	-0.0932	0.0195
180.0000	-0.0000	-0.0000	-0.0000	-0.0000	-0.0000	-0.0000	0.2282	0.2452	-0.0082	0.2289	-0.0000	-0.0000	-0.0000	-0.0000	-0.0000	0.0715	0.2747	0.2369	0.2030
181.0000	-0.0000	-0.0000	-0.0000	-0.0000	-0.0000	-0.0000	-0.0938	0.1406	-0.0238	-0.0416	-0.0000	-0.0000	-0.0000	-0.0000	-0.0000	-0.0779	0.1220	0.0478	0.0750
182.0000	-0.0000	-0.0000	-0.0000	-0.0000	-0.0000	-0.3422	-0.4778	-0.3207	-0.3997	-1.5270	-0.0000	-0.0000	-0.0000	-0.0000	-0.1945	-0.3452	-0.3507	-0.3122	-1.2357
183.0000	-0.0000	-0.0000	-0.0000	-0.0000	-0.0000	-0.0000	-0.3442	-0.3707	-0.3366	-0.9073	-0.0000	-0.0000	-0.0000	-0.0000	-0.0000	-0.3748	-0.3638	-0.3368	-0.9581
184.0000	0.0000	0.0000	0.0000	0.0000	0.0000	0.0000	-0.0968	-0.0529	0.0331	-0.5311	0.0000	0.0000	0.0000	0.0000	0.0000	0.0476	0.0009	0.1098	0.3687
185.0000	-0.0000	-0.0000	-0.0953	-0.0959	-0.0603	-0.0924	-0.0684	-0.0889	-0.0839	-0.5933	-0.0000	-0.0775	-0.0776	-0.0598	-0.0632	-0.0406	-0.0508	-0.0815	-0.5890
186.0000	-0.0000	-0.0000	-0.0000	0.0660	0.0533	0.1135	0.0684	0.1661	0.0474	0.4831	-0.0000	-0.0000	0.0076	0.1213	0.1333	0.0730	0.1006	-0.0238	0.1272
187.0000	-0.0000	-0.0000	-0.0000	0.1414	0.1416	0.3929	0.2841	0.3072	0.3378	0.1484	-0.0000	-0.0000	0.0501	0.2337	0.3990	0.3963	0.1798	0.2582	0.4787
188.0000	-0.0000	-0.0000	-0.0000	0.1298	0.0100	-0.0560	0.0318	-0.0254	-0.0553	-0.0488	-0.0000	-0.0000	0.0425	0.0685	0.0019	0.0470	0.0132	-0.0251	-0.2019
189.0000	-0.0000	-0.0000	-0.0000	-0.2348	-0.1984	-0.1974	-0.1921	-0.1960	-0.2153	-0.6975	-0.0000	-0.0000	-0.0731	-0.1428	-0.1411	-0.1193	-0.1429	-0.1360	-0.6134
190.0000	-0.0000	-0.0000	-0.0000	-0.0000	-0.0000	-0.0000	-0.0834	-0.0878	-0.0785	1.4450	-0.0000	-0.0000	-0.0000	-0.0000	-0.0000	-0.1282	-0.0992	-0.1195	0.8623
191.0000	-0.0000	-0.0000	-0.0000	-0.0000	-0.0000	-0.0000	-0.0644	-0.1381	-0.0786	-0.3911	-0.0000	-0.0000	-0.0000	-0.0000	-0.0000	-0.0933	-0.1296	-0.1329	0.1236
192.0000	0.0902	0.0597	0.1925	0.1689	0.1414	0.1231	0.2137	0.1458	0.2133	0.9689	0.0886	0.1197	0.1917	0.1751	0.1669	0.1894	0.2091	0.1947	0.9485
193.0000	-0.0000	-0.0000	-0.0000	-0.0000	-0.0000	-0.0549	0.0478	-0.0085	-0.0596	-0.0453	-0.0000	-0.0000	-0.0000	-0.0000	0.0231	0.0608	0.0908	-0.0240	0.0479
194.0000	0.0000	0.0000	0.0000	0.0000	0.0000	0.0000	0.1253	0.1944	0.1987	1.0159	0.0000	0.0000	0.0000	0.0000	0.0000	0.0964	0.1588	0.2151	1.0419
195.0000	-0.2598	-0.2895	-0.3685	-0.2787	-0.2254	-0.1366	-0.1648	-0.1252	-0.2123	-1.6901	-0.2837	-0.3129	-0.3053	-0.2554	-0.1416	-0.1267	-0.1626	-0.1803	-1.2526
196.0000	-0.0148	-0.0070	-0.0069	-0.0132	-0.0129	0.1857	0.2051	0.1494	0.4139	1.0163	-0.0143	-0.0031	-0.0142	-0.0147	0.0806	0.2993	0.2787	0.3766	0.9672
197.0000	-0.0081	-0.0074	0.0057	0.0398	0.2683	0.2740	0.2018	0.2099	0.2505	0.9643	-0.0002	0.0283	0.0407	0.2822	0.2620	0.1899	0.2116	0.1957	0.9526
198.0000	-0.0000	-0.0000	-0.0000	-0.0000	-0.0000	-0.0000	-0.0420	-0.0453	0.0284	-0.0859	-0.0000	-0.0000	-0.0000	-0.0000	-0.0000	-0.0987	-0.0690	-0.0165	-0.0240
199.0000	-0.0000	-0.0000	-0.0000	-0.0000	-0.0000	-0.0000	-0.4699	-0.3909	-0.4881	-1.1825	-0.0000	-0.0000	-0.0000	-0.0000	-0.0000	-0.2374	-0.3569	-0.3521	-0.7852
200.0000	-0.0000	-0.0000	-0.0000	-0.0000	-0.0000	0.0206	-0.0815	-0.1082	-0.0990	-0.2228	-0.0000	-0.0000	-0.0000	-0.0000	0.0730	0.0401	-0.0177	-0.0703	0.0611
201.0000	-0.0000	-0.0000	-0.0000	-0.0000	-0.0000	-0.0000	-0.1586	-0.1688	-0.1235	-0.0537	-0.0000	-0.0000	-0.0000	-0.0000	-0.0000	-0.2055	-0.2027	-0.2060	-0.3999
202.0000	-0.0000	-0.0000	-0.0000	-0.0000	-0.0000	-0.0000	-0.0974	-0.0575	-0.0809	0.6134	-0.0000	-0.0000	-0.0000	-0.0000	-0.0000	-0.1039	-0.0813	-0.0628	0.5320
203.0000	-0.0000	-0.0000	-0.0000	-0.0000	-0.0000	-0.4085	-0.4342	-0.4313	-0.2587	-1.2666	-0.0000	-0.0000	-0.0000	-0.0000	-0.3098	-0.3418	-0.3127	-0.3430	-1.0704
204.0000	-0.0000	-0.0000	-0.0000	-0.0000	-0.0000	-0.1882	-0.1977	-0.1997	-0.1526	-0.8827	-0.0000	-0.0000	-0.0000	-0.0000	-0.1612	-0.1616	-0.1585	-0.1392	-0.4294
205.0000	0.0963	-0.0215	0.0057	0.0243	-0.0362	-0.0435	-0.0458	0.0308	-0.0313	-0.7359	0.0574	0.0119	0.0319	0.0364	-0.0442	-0.0445	-0.0095	0.0072	-0.3245
206.0000	-0.0272	0.0597	-0.0414	0.0218	-0.0417	0.1584	-0.0164	-0.0304	-0.0393	-0.3603	0.0340	0.0040	-0.0227	0.0203	0.0665	0.0613	-0.0394	-0.0371	-0.0061
207.0000	-0.0376	-0.0459	-0.0237	-0.0360	-0.0498	-0.0486	-0.0459	-0.0409	0.2305	0.8782	-0.0472	-0.0305	-0.0212	-0.0462	-0.0181	-0.0397	-0.0333	0.1851	0.7213
208.0000	-0.0000	-0.0000	-0.0000	-0.0000	-0.0000	-0.0000	0.2740	0.5376	0.1310	-0.2480	-0.0000	-0.0000	-0.0000	-0.0000	-0.0000	0.1045	0.3862	0.4718	-0.2405
209.0000	-0.0000	-0.0000	-0.0000	-0.0000	-0.0000	-0.0000	-0.0388	0.1073	0.4465	1.0085	-0.0000	-0.0000	-0.0000	-0.0000	-0.0000	0.0207	0.0647	0.2350	1.1752
210.0000	-0.0000	-0.0000	-0.0000	-0.0000	-0.0000	-0.0000	-0.0565	0.2996	-0.0877	0.0711	-0.0000	-0.0000	-0.0000	-0.0000	-0.0000	-0.0816	-0.0126	-0.0546	0.1313
211.0000	-0.0000	-0.0000	-0.0000	-0.0000	-0.0000	-0.0000	-0.0910	-0.0669	-0.0975	0.4456	-0.0000	-0.0000	-0.0000	-0.0000	-0.0000	-0.0460	-0.0472	-0.0175	0.5372
212.0000	-0.0000	-0.0000	-0.0000	-0.0000	-0.0000	-0.0000	-0.3013	-0.2853	-0.2257	-0.5602	-0.0000	-0.0000	-0.0000	-0.0000	-0.0000	-0.3174	-0.2999	-0.3161	-0.7188
213.0000	-0.0258	-0.0207	0.0537	0.2997	-0.0075	-0.0326	-0.0324	-0.0303	-0.0299	0.5700	-0.0228	0.0770	0.1224	0.0829	-0.0477	-0.0484	-0.0452	-0.0483	-0.2955
214.0000	-0.0000	-0.0000	-0.0000	-0.0000	-0.0000	-0.0000	-0.1984	-0.1764	-0.1573	-0.7842	-0.0000	-0.0000	-0.0000	-0.0000	-0.0000	-0.1201	-0.1055	-0.1314	-0.4697
215.0000	-0.0000	-0.0000	-0.0000	-0.0000	-0.0000	-0.0000	-0.1062	-0.2043	-0.1958	-0.5514	-0.0000	-0.0000	-0.0000	-0.0000	-0.0000	0.0406	-0.1619	-0.1622	-0.4268
216.0000	-0.0478	-0.0299	-0.0434	-0.0207	-0.0414	-0.0370	-0.0481	0.1153	-0.0414	-0.1015	-0.0409	-0.0222	0.0422	-0.0098	-0.0399	-0.0295	0.0212	0.0224	-0.0325
217.0000	-0.0000	-0.0000	-0.0000	-0.0000	-0.2107	-0.2132	-0.1424	-0.2306	-0.2313	-0.6784	-0.0000	-0.0000	-0.0000	-0.2206	-0.2473	-0.1941	-0.2057	-0.2550	-0.6440
218.0000	-0.0392	0.0037	-0.0410	-0.0570	-0.0483	-0.0643	-0.0633	-0.0638	-0.0457	-0.2957	-0.0110	0.0039	-0.0483	-0.0548	-0.0488	-0.0279	-0.0380	-0.0500	-0.2024
219.0000	-0.0000	-0.0000	0.1130	0.0158	-0.0042	0.3777	0.3501	0.1677	0.1992	0.6208	-0.0000	0.1070	0.0784	0.0722	0.1542	0.3066	0.1998	0.1842	0.5717
220.0000	-0.0000	-0.0000	-0.0000	-0.0000	-0.0000	-0.0000	0.1630	0.4263	0.2022	0.0702	-0.0000	-0.0000	-0.0000	-0.0000	-0.0000	0.0787	0.3119	0.2086	0.5719
221.0000	-0.0000	-0.0000	-0.0000	-0.0000	-0.0000	-0.1014	-0.1268	0.1141	-0.1265	-0.6415	-0.0000	-0.0000	-0.0000	-0.0000	-0.0687	-0.1053	-0.1050	-0.1010	-0.4396
222.0000	-0.0000	-0.0000	-0.0000	-0.0000	-0.2030	-0.1522	-0.1350	-0.2045	-0.1629	-0.7300	-0.0000	-0.0000	-0.0000	-0.1756	-0.1444	-0.1748	-0.1727	-0.1767	-0.5695
223.0000	-0.0000	-0.0000	-0.0000	-0.0000	-0.0000	-0.0000	0.0361	0.5644	-0.0413	0.9871	-0.0000	-0.0000	-0.0000	-0.0000	-0.0000	0.0494	0.1488	0.3740	0.6959
224.0000	0.0000	0.0000	0.0000	0.0000	-0.0651	-0.0507	-0.0345	-0.0089	0.1124	0.1829	0.0000	0.0000	0.0000	-0.0278	0.0175	0.0353	0.0356	0.1273	0.4772
225.0000	0.0764	0.2102	0.1459	0.1063	0.0141	0.0933	0.2146	0.0494	-0.0105	0.9315	0.1866	0.2373	0.1445	0.0374	0.0645	0.2390	0.1171	-0.0125	-0.1432
226.0000	-0.0000	-0.0000	-0.0000	-0.0000	-0.0557	-0.0113	0.0098	-0.0407	0.2964	-0.2367	-0.0000	-0.0000	-0.0000	-0.0292	-0.0009	0.0019	0.0640	0.1008	0.2746
227.0000	-0.0000	-0.0000	-0.0000	-0.0140	0.1574	0.1396	0.0418	0.0784	0.1090	0.1686	-0.0000	-0.0000	0.0374	0.1292	0.1478	0.1463	0.0730	0.1210	0.5112
228.0000	-0.0000	-0.0000	-0.0000	-0.0000	-0.0000	-0.0000	-0.0753	-0.0272	0.1588	0.1446	-0.0000	-0.0000	-0.0000	-0.0000	-0.0000	-0.0181	-0.0198	0.1498	0.3312
229.0000	-0.0000	-0.0000	-0.0000	-0.0538	-0.0592	0.0087	-0.0304	-0.0153	-0.0632	-0.1231	-0.0000	-0.0000	-0.0231	-0.0392	-0.0388	-0.0129	-0.0281	-0.0586	-0.2379
230.0000	-0.0000	-0.0000	-0.0000	-0.0000	-0.0000	0.2032	-0.0633	0.2481	-0.0437	-0.3524	-0.0000	-0.0000	-0.0000	-0.0000	0.2109	0.2138	-0.0594	-0.0198	-0.0172
231.0000	0.0781	-0.0531	-0.0508	-0.0444	-0.0532	-0.0528	0.0015	-0.0517	0.1129	-0.1795	0.1092	-0.0674	-0.0663	-0.0676	-0.0616	-0.0675	-0.0335	-0.0530	-0.3081
232.0000	-0.0789	-0.0802	-0.0557	-0.0778	-0.0775	-0.0800	-0.0633	-0.0656	-0.0803	-0.4040	-0.0659	-0.0604	-0.0385	-0.0732	-0.0733	-0.0681	-0.0235	-0.0680	-0.3828
233.0000	-0.0000	-0.0000	-0.0000	0.0315	0.0427	0.0963	0.0009	0.1528	0.0112	-0.0963	-0.0000	-0.0000	0.1967	0.0846	0.0732	0.0331	0.0474	0.0215	0.3699
234.0000	-0.0000	-0.0000	-0.0000	-0.0000	-0.0000	-0.0000	-0.0720	0.0841	-0.0963	0.0075	-0.0000	-0.0000	-0.0000	-0.0000	-0.0000	-0.0372	0.0702	-0.0030	0.0769
235.0000	0.0000	0.0000	0.0000	0.0000	0.0870	0.1177	0.2412	0.1397	0.0118	0.2924	0.0000	0.0000	0.0000	0.0351	0.1236	0.1563	0.2233	0.0567	0.5860
236.0000	-0.0000	-0.0000	-0.0000	-0.0187	0.1903	0.2225	0.1904	0.2447	-0.0074	0.7250	-0.0000	-0.0000	-0.0046	0.1002	0.1941	0.1957	0.2298	0.0518	0.6006
237.0000	-0.0000	-0.0000	0.0034	0.2482	-0.0429	-0.0515	-0.0326	-0.0553	-0.0089	-0.5776	-0.0000	0.0182	0.1726	-0.0063	-0.0128	-0.0268	-0.0468	-0.0353	0.0465
238.0000	-0.0000	-0.0000	-0.0000	-0.0000	-0.0000	-0.0912	-0.0268	-0.0125	0.1498	-0.5344	-0.0000	-0.0000	-0.0000	-0.0000	-0.0195	0.0087	0.0438	0.0971	0.1246
239.0000	-0.0000	-0.0000	-0.0000	-0.0000	-0.0000	-0.0548	0.2407	0.0702	-0.0329	-0.5097	-0.0000	-0.0000	-0.0000	-0.0000	-0.0333	0.1811	0.0972	0.0736	-0.0957
240.0000	-0.0000	-0.0679	-0.0659	-0.0683	-0.0029	-0.0675	0.0760	-0.0660	-0.0664	-0.2216	-0.0243	-0.0519	-0.0530	-0.0241	0.0178	-0.0306	0.0026	-0.0502	-0.2204
241.0000	0.0000	0.0000	0.1716	0.2635	0.0445	0.0486	0.3132	0.2175	0.2072	0.9410	0.0000	0.2351	0.1469	0.2019	0.0892	0.1770	0.2234	0.2295	0.8296
242.0000	-0.0000	-0.0000	-0.0000	-0.0000	-0.0000	-0.0000	-0.2150	-0.2010	-0.1878	-0.7399	-0.0000	-0.0000	-0.0000	-0.0000	-0.0000	-0.1159	-0.1549	-0.1413	-0.4420
243.0000	-0.0000	-0.0000	-0.0000	-0.0000	-0.1139	-0.1048	-0.1151	-0.0790	-0.0507	-0.2566	-0.0000	-0.0000	-0.0000	-0.0998	-0.1025	-0.0955	-0.0832	-0.0367	-0.1645
244.0000	-0.0000	-0.0000	-0.0000	-0.0000	-0.0000	-0.0000	-0.1432	-0.0357	-0.1358	-0.2477	-0.0000	-0.0000	-0.0000	-0.0000	-0.0000	-0.1092	-0.0635	0.0198	0.0915
245.0000	0.0000	0.0000	0.0000	0.0048	0.1719	0.0189	0.0010	0.3236	0.0114	0.2216	0.0000	0.0000	0.0423	0.1646	0.1315	0.0584	0.0246	0.1602	0.2201
246.0000	-0.0000	-0.0000	-0.0000	-0.0000	-0.0000	-0.0000	0.0819	-0.0770	0.6106	-0.5901	-0.0000	-0.0000	-0.0000	-0.0000	-0.0000	-0.0301	0.0322	0.1887	-0.1896
247.0000	-0.0166	0.0319	-0.0158	-0.0170	-0.0064	0.0249	0.1007	0.1733	0.1299	0.7036	0.0157	0.0364	-0.0218	-0.0079	0.0171	0.0476	0.1763	0.1949	0.5360
248.0000	-0.0000	-0.0000	-0.0000	-0.0000	-0.0000	-0.0000	0.4251	0.2985	0.3718	0.6188	-0.0000	-0.0000	-0.0000	-0.0000	-0.0000	0.2967	0.2074	0.2196	0.7984
249.0000	-0.0000	-0.0000	-0.0000	-0.0000	-0.0666	-0.0521	0.1808	0.0181	-0.0717	-0.3542	-0.0000	-0.0000	-0.0000	-0.0267	0.0002	0.0317	0.2403	-0.0450	-0.2693
250.0000	-0.0000	-0.0000	-0.0000	-0.1813	-0.1812	-0.1804	-0.1372	-0.1757	-0.1727	-1.2452	-0.0000	-0.0000	-0.0740	-0.0714	-0.1170	-0.1202	-0.0976	-0.1185	-0.8172
251.0000	-0.0000	-0.0000	-0.0000	-0.0000	-0.0000	-0.0000	-0.1446	-0.1378	-0.1458	0.1241	-0.0000	-0.0000	-0.0000	-0.0000	-0.0000	-0.1180	-0.0875	-0.0978	-0.1397
252.0000	-0.0000	-0.0000	-0.0000	-0.0000	-0.0000	-0.0091	-0.0398	0.0015	0.0300	1.2492	-0.0000	-0.0000	-0.0000	-0.0000	0.0492	-0.0317	0.0233	0.0063	0.5306
253.0000	-0.0000	-0.0000	-0.0000	-0.0000	-0.0000	-0.1149	-0.1236	-0.0652	-0.1233	-0.3099	-0.0000	-0.0000	-0.0000	-0.0000	-0.1354	-0.1496	-0.1520	-0.1564	-0.3671
254.0000	-0.0000	-0.0000	-0.0000	0.2797	0.0662	-0.0084	0.0325	0.0474	-0.0367	0.2187	-0.0000	-0.0000	0.1434	0.0739	0.0647	0.0207	0.0545	-0.0286	0.1769
255.0000	-0.0000	-0.0000	-0.0000	-0.0000	-0.0288	0.0081	-0.0275	0.1989	0.3080	1.2605	-0.0000	-0.0000	-0.0000	-0.0261	-0.0279	0.0183	0.0990	0.3299	1.1506
256.0000	-0.1656	-0.1329	-0.1411	-0.1660	-0.1406	-0.1238	-0.1696	-0.1672	-0.1153	-0.8630	-0.1344	-0.1554	-0.1623	-0.1632	-0.1636	-0.1447	-0.1633	-0.1585	-0.9552
257.0000	-0.0000	-0.0000	-0.0408	-0.0482	-0.0495	-0.0041	-0.0331	0.0332	0.2059	0.2744	-0.0000	-0.0240	-0.0443	-0.0372	-0.0415	-0.0202	-0.0166	0.3453	0.4776
258.0000	0.0027	-0.0345	-0.0346	0.0113	-0.0301	-0.0317	0.0738	0.2804	0.0780	-0.3145	-0.0214	-0.0219	-0.0420	-0.0149	-0.0379	-0.0103	0.1740	0.0896	-0.1130
259.0000	-0.0023	0.0010	-0.0081	0.0333	0.0413	0.1509	0.0340	-0.0092	0.1909	0.5195	-0.0133	0.0133	0.0330	0.0873	0.1227	0.0772	0.0330	0.0458	0.7460
260.0000	-0.0000	-0.0000	-0.0000	-0.0000	-0.0000	-0.1762	-0.1530	-0.1779	-0.1792	-0.5835	-0.0000	-0.0000	-0.0000	-0.0000	-0.1367	-0.0988	-0.1200	-0.1339	-0.2756
261.0000	-0.0494	-0.0515	-0.0489	-0.0179	-0.0212	0.0946	-0.0502	-0.0394	-0.0118	-0.2828	-0.0298	-0.0289	0.0601	0.1237	0.0034	-0.0382	-0.0294	-0.0232	0.1038
262.0000	-0.0000	-0.0000	-0.0000	-0.0000	-0.0000	0.0767	0.1309	0.2180	0.2241	-0.0289	-0.0000	-0.0000	-0.0000	-0.0000	0.0227	0.1183	0.1715	0.3021	0.1622
263.0000	-0.0000	-0.0000	-0.0000	-0.0000	-0.0000	-0.0000	-0.0975	-0.1031	0.2638	0.1531	-0.0000	-0.0000	-0.0000	-0.0000	-0.0000	-0.1370	-0.1280	-0.0997	0.3118
264.0000	-0.0000	-0.0000	-0.0000	-0.0000	-0.0000	-0.0000	-0.0723	-0.1004	-0.0992	-0.2123	-0.0000	-0.0000	-0.0000	-0.0000	-0.0000	0.0021	-0.0826	-0.0973	-0.2829
265.0000	-0.0000	-0.0000	-0.0000	-0.0000	0.0130	0.1085	-0.0578	0.0173	-0.0516	0.2529	-0.0000	-0.0000	-0.0000	-0.0120	0.1487	0.1076	0.0246	-0.0320	0.2175
266.0000	-0.0000	-0.0000	-0.0000	-0.0000	0.1866	0.1477	0.1455	-0.0100	0.2371	0.1638	-0.0000	-0.0000	-0.0000	0.3382	0.1565	0.1229	0.0674	0.2277	0.6077
267.0000	-0.0000	-0.0000	-0.0000	-0.0000	-0.0000	-0.0811	0.0136	-0.1257	-0.0673	-1.2918	-0.0000	-0.0000	-0.0000	-0.0000	-0.0630	0.0028	-0.0576	-0.1164	-0.8219
268.0000	-0.0000	-0.0000	-0.0000	-0.0000	-0.0000	0.0057	-0.0883	-0.0921	-0.0178	-0.3925	-0.0000	-0.0000	-0.0000	-0.0000	0.0603	-0.0419	-0.0613	0.0475	0.4006
269.0000	-0.0123	0.0059	-0.0144	0.0715	-0.0156	-0.0164	0.3440	0.2329	0.3608	0.8207	0.0114	0.0089	0.0087	0.0054	0.0005	0.0867	0.2778	0.2927	0.7684
270.0000	-0.0000	-0.0000	-0.0000	-0.0000	-0.0000	-0.1482	-0.1483	-0.1743	-0.1710	-0.4106	-0.0000	-0.0000	-0.0000	-0.0000	-0.1656	-0.1527	-0.1587	-0.1309	-0.3615
271.0000	-0.0000	-0.0000	-0.0000	-0.0000	-0.0000	-0.3160	-0.2310	-0.2267	-0.3204	-1.1583	-0.0000	-0.0000	-0.0000	-0.0000	-0.2022	-0.1602	-0.1886	-0.2003	-0.3828
272.0000	-0.0000	-0.0000	-0.0000	-0.0000	0.2178	0.1505	0.2513	0.1772	0.2101	0.7419	-0.0000	-0.0000	-0.0000	0.1088	0.1824	0.2131	0.2230	0.2047	0.7469
273.0000	-0.0836	-0.0838	-0.0837	-0.0834	-0.0835	-0.0705	-0.0838	-0.0759	-0.0581	-0.4903	-0.0634	-0.0599	-0.0585	-0.0205	-0.0330	-0.0557	-0.0538	-0.0196	-0.2371
274.0000	0.0226	0.0859	0.0141	0.0310	0.1233	-0.0060	0.1995	0.2142	0.2154	0.8863	0.0812	0.0780	0.0236	0.1101	0.1073	0.1711	0.2099	0.1950	0.8672
275.0000	-0.0000	-0.0000	-0.0000	-0.0000	-0.0000	-0.1210	-0.1157	0.0419	-0.1241	-0.2853	-0.0000	-0.0000	-0.0000	-0.0000	-0.1085	-0.1117	0.0005	-0.0905	-0.1008
276.0000	0.0000	0.0000	0.0000	0.0000	0.0000	0.0000	-0.0267	0.4544	-0.0398	1.2322	0.0000	0.0000	0.0000	0.0000	0.0000	0.2087	0.2702	-0.0356	0.0656
277.0000	-0.0000	-0.0000	-0.0000	-0.0000	-0.0000	0.0223	0.0923	0.0675	-0.0067	0.0178	-0.0000	-0.0000	-0.0000	-0.0000	0.0958	0.0379	0.1468	0.0510	-0.0143
278.0000	-0.0000	-0.0000	-0.0000	-0.0000	-0.0000	-0.0857	-0.2376	-0.3430	-0.4479	-1.1922	-0.0000	-0.0000	-0.0000	-0.0000	-0.1893	-0.1139	-0.3068	-0.4164	-1.0063
279.0000	0.0000	0.0000	0.0000	0.0000	0.0000	-0.1557	-0.1133	-0.1722	-0.1761	-1.0435	0.0000	0.0000	0.0000	0.0000	-0.1202	-0.1270	-0.0671	-0.1352	-0.5686
280.0000	0.0000	0.0000	0.0567	-0.0304	0.0172	0.0408	0.0920	0.0439	0.0243	0.3715	0.0000	0.0680	0.0153	-0.0049	0.0172	0.1616	0.0711	0.0732	0.4041
281.0000	-0.0000	-0.0000	-0.0000	-0.0000	-0.0000	-0.2343	-0.1985	-0.1928	-0.2011	-0.7486	-0.0000	-0.0000	-0.0000	-0.0000	-0.1762	-0.1010	-0.1791	-0.1642	-0.6035
282.0000	-0.0000	-0.0000	-0.0000	-0.1422	-0.1040	-0.1503	-0.1134	-0.2083	-0.1325	-0.0511	-0.0000	-0.0000	-0.1444	-0.1285	-0.1180	-0.1560	-0.1368	-0.1934	-0.0654
283.0000	-0.0000	-0.0000	-0.0000	0.0147	0.1637	-0.0378	-0.0477	0.0508	-0.0526	-0.0808	-0.0000	-0.0000	0.1625	0.0786	-0.0113	-0.0182	0.0090	-0.0218	0.0258
284.0000	-0.0000	-0.0000	-0.0000	-0.0000	0.0590	-0.0965	-0.1020	-0.0635	-0.0605	-1.1440	-0.0000	-0.0000	-0.0000	-0.0556	-0.1419	-0.1280	-0.1360	-0.1199	-1.0429
285.0000	0.0000	0.0000	0.0000	0.0000	-0.0349	-0.0445	-0.0261	0.0449	0.0751	0.3253	0.0000	0.0000	0.0000	0.0893	-0.0244	0.0212	0.0070	0.0495	0.3698
286.0000	-0.0202	0.0614	0.0198	0.0351	0.0064	0.0401	-0.0079	0.0537	0.1244	0.1291	-0.0119	0.0516	0.0933	0.0151	0.0368	0.0239	0.0280	0.1065	0.4218
287.0000	-0.0000	-0.0000	-0.0000	-0.0000	-0.0000	-0.0000	0.0260	-0.1026	0.1984	-0.3105	-0.0000	-0.0000	-0.0000	-0.0000	-0.0000	0.0575	-0.0269	0.0086	0.2093
288.0000	0.1263	0.1882	0.1043	0.2078	0.2817	0.2775	0.0481	-0.0073	0.0084	1.0469	0.1355	0.1161	0.1590	0.2805	0.2821	0.2212	0.0351	0.0198	1.0250
289.0000	-0.0000	-0.0000	-0.0000	-0.0000	-0.0000	-0.0871	-0.0785	-0.0155	0.0279	-0.2320	-0.0000	-0.0000	-0.0000	-0.0000	-0.0380	-0.0013	-0.0190	0.0067	-0.1003
290.0000	-0.0000	-0.0000	-0.0000	-0.0000	-0.0000	-0.0000	0.0457	0.1482	-0.0307	0.1609	-0.0000	-0.0000	-0.0000	-0.0000	-0.0000	-0.0022	0.1370	0.0005	0.1264
291.0000	-0.1088	-0.1271	-0.1046	-0.0742	-0.0692	-0.1062	-0.1302	-0.0782	-0.1247	-0.3887	-0.1410	-0.1451	-0.0576	-0.0744	-0.1207	-0.1199	-0.1452	-0.1446	-0.3749
292.0000	0.0213	0.0883	0.0181	0.0503	0.0389	0.0696	0.1444	0.1689	0.1312	0.7935	0.1115	0.0930	0.0226	0.0283	0.0833	0.1722	0.1829	0.1011	0.4860
293.0000	0.0468	-0.0120	-0.0179	0.1343	0.0581	-0.0235	0.0425	-0.0254	0.2273	-0.2289	0.0350	0.0768	0.1042	0.1031	0.0835	-0.0165	0.0261	0.0479	-0.0035
294.0000	-0.0380	-0.0147	0.0331	-0.0327	-0.0508	-0.0501	-0.0507	0.0083	-0.0382	-0.1611	-0.0219	-0.0155	-0.0160	-0.0492	-0.0453	-0.0468	-0.0529	-0.0187	0.2349
295.0000	-0.0337	0.0163	0.0027	-0.0104	-0.0338	0.1642	-0.0202	-0.0132	-0.0175	-0.0585	0.0040	0.0215	0.0080	-0.0073	0.1485	0.1047	-0.0340	-0.0348	-0.0473
296.0000	0.0000	0.0000	0.0000	0.0000	0.3323	0.0335	-0.0018	-0.0235	0.0049	-0.0093	0.0000	0.0000	0.0000	0.2741	0.1063	0.0728	0.0639	0.0108	0.3210
297.0000	-0.0000	-0.0000	-0.0000	-0.0000	-0.0000	-0.0000	0.2225	0.1807	-0.0611	0.3766	-0.0000	-0.0000	-0.0000	-0.0000	-0.0000	0.0532	0.1775	0.1326	0.3833
298.0000	-0.0000	-0.0000	-0.0000	-0.0000	-0.0687	-0.0604	-0.0688	-0.0648	-0.0512	1.5906	-0.0000	-0.0000	-0.0000	-0.0863	-0.1194	-0.1181	-0.1201	-0.1149	0.1271
299.0000	-0.0227	-0.0261	0.0133	-0.0246	0.0029	0.2757	0.0528	0.0991	0.0964	0.2286	-0.0285	-0.0285	-0.0272	-0.0093	0.0787	0.2398	0.1283	0.1445	0.1317
300.0000	-0.0659	-0.0795	-0.0771	-0.0808	-0.0655	-0.0259	-0.0782	-0.0803	-0.0802	-0.5341	-0.0822	-0.0850	-0.0868	-0.0867	-0.0591	-0.0679	-0.0850	-0.0868	-0.4361
301.0000	-0.0000	-0.0000	-0.0000	-0.2616	-0.2386	-0.3046	-0.2868	-0.2225	-0.2503	-1.0688	-0.0000	-0.0000	-0.2422	-0.2397	-0.2139	-0.2537	-0.2264	-0.2042	-1.0034
302.0000	-0.0000	-0.0000	-0.0000	-0.0000	-0.0555	-0.0158	0.0809	-0.0032	0.0020	-0.0839	-0.0000	-0.0000	-0.0000	0.0035	-0.0045	-0.0015	0.1319	0.0227	0.0614
303.0000	-0.0000	-0.0000	-0.0000	-0.0000	0.0137	0.0113	0.0208	0.0874	0.4210	0.4624	-0.0000	-0.0000	-0.0000	0.0747	0.0586	0.0629	0.0966	0.3171	0.7327
304.0000	-0.1280	-0.1335	-0.1283	-0.1291	-0.1248	-0.0879	-0.1338	-0.1042	-0.0287	-0.5171	-0.1834	-0.1837	-0.1811	-0.1811	-0.1340	-0.1612	-0.1548	-0.0546	-0.9715
305.0000	-0.0000	-0.0000	-0.0000	0.0196	-0.0331	0.0867	0.0630	-0.0247	-0.0506	-0.2304	-0.0000	-0.0000	0.0907	0.0497	-0.0038	0.0351	-0.0063	-0.0030	-0.1690
306.0000	-0.0000	-0.0000	-0.0000	-0.0000	-0.0000	-0.0000	0.0348	0.7068	0.0039	-0.0568	-0.0000	-0.0000	-0.0000	-0.0000	-0.0000	0.0388	0.3544	0.3360	0.0778
307.0000	-0.0000	-0.0000	-0.0000	-0.0000	-0.1077	-0.1238	-0.1236	-0.0939	-0.1229	-0.0008	-0.0000	-0.0000	-0.0000	-0.1087	-0.1116	-0.1077	-0.0887	-0.0729	-0.2427
308.0000	-0.0000	-0.0000	-0.0000	-0.0000	-0.0000	-0.1310	-0.2267	-0.2489	-0.2310	-0.6939	-0.0000	-0.0000	-0.0000	-0.0000	-0.1500	-0.1789	-0.2096	-0.2058	-0.3416
309.0000	0.0000	0.0000	0.0000	0.0000	0.0000	0.0000	-0.2580	-0.2477	-0.2452	-0.4992	0.0000	0.0000	0.0000	0.0000	0.0000	-0.1823	-0.1947	-0.1965	-0.3148
310.0000	-0.0000	-0.1936	-0.1854	-0.1597	-0.1526	-0.1132	-0.1646	-0.2071	-0.2038	-0.6698	-0.1471	-0.1948	-0.1565	-0.1374	-0.1584	-0.1243	-0.1908	-0.1966	-0.7235
311.0000	0.0000	0.0000	0.0000	0.0000	0.0000	0.0000	-0.1148	-0.1482	-0.0525	-0.3032	0.0000	0.0000	0.0000	0.0000	0.0000	-0.0636	-0.1314	-0.1252	0.0151
312.0000	-0.0368	-0.0371	-0.0274	-0.0381	0.0060	-0.0328	-0.0312	0.0591	0.2391	0.5695	-0.0337	-0.0107	-0.0263	0.1044	-0.0052	-0.0337	0.0228	0.1855	0.5169
313.0000	-0.0000	-0.0000	-0.0000	-0.0000	-0.1589	-0.1488	-0.1609	-0.1194	-0.1588	-0.5637	-0.0000	-0.0000	-0.0000	-0.1326	-0.1291	-0.1303	-0.1361	-0.1379	-0.5307
314.0000	-0.0000	-0.0000	-0.0000	-0.0000	-0.0000	-0.0000	-0.0452	0.0676	0.1059	-0.1921	-0.0000	-0.0000	-0.0000	-0.0000	-0.0000	-0.0861	-0.0163	0.0406	-0.0315
315.0000	-0.0456	-0.0408	0.0399	-0.0421	0.1415	-0.0469	-0.0060	-0.0473	0.0282	-0.3346	-0.0379	-0.0087	0.0315	0.0374	0.0214	-0.0133	-0.0007	0.0205	0.1488
316.0000	-0.0000	-0.0000	-0.0000	-0.0000	-0.0000	-0.0889	-0.1430	-0.1432	-0.1253	-0.3692	-0.0000	-0.0000	-0.0000	-0.0000	-0.1596	-0.1567	-0.1590	-0.1351	-0.1911
317.0000	-0.0000	-0.0000	-0.0000	-0.0492	-0.0447	0.0561	0.2431	0.3221	-0.0471	-0.7269	-0.0000	-0.0000	-0.0441	-0.0354	-0.0265	0.0891	0.2690	0.0289	-0.5514
318.0000	-0.0000	-0.0000	-0.0000	-0.0000	-0.0000	-0.0000	0.3016	0.1983	0.0676	-0.2214	-0.0000	-0.0000	-0.0000	-0.0000	-0.0000	0.2138	0.3447	0.0965	0.3074
319.0000	-0.0000	-0.0000	-0.0000	-0.0418	-0.0639	0.0157	0.0125	-0.0513	0.0418	-0.4205	-0.0000	-0.0000	0.0383	-0.0238	0.0215	0.1009	0.0279	-0.0133	-0.3681
320.0000	0.0000	0.0000	0.0000	0.0000	-0.0579	-0.0626	-0.0558	0.7923	-0.0616	-0.4440	0.0000	0.0000	0.0000	-0.0626	-0.0547	-0.0204	0.1458	0.2026	-0.3306
321.0000	-0.0000	-0.0097	0.1838	0.1401	0.1775	0.2542	0.1434	0.1625	0.2226	0.8763	-0.0048	0.0766	0.1813	0.1737	0.1878	0.1874	0.1782	0.2410	0.9444
322.0000	0.0000	0.0000	0.0000	0.0000	0.0000	0.0000	0.0253	-0.0397	0.1543	0.1624	0.0000	0.0000	0.0000	0.0000	0.0000	0.1117	0.0654	0.1471	0.5490
323.0000	0.0000	0.0000	0.0000	-0.1480	-0.1442	-0.1226	-0.0962	-0.1533	-0.1586	-0.5130	0.0000	0.0000	-0.1292	-0.1569	-0.1428	-0.1314	-0.1582	-0.1559	-0.5547
324.0000	-0.0000	-0.0000	-0.0000	-0.0000	-0.1234	-0.1883	-0.2015	-0.1472	-0.1372	-0.0487	-0.0000	-0.0000	-0.0000	-0.2259	-0.1429	-0.1347	-0.1896	-0.1594	-0.1659
325.0000	-0.0000	-0.0942	-0.1011	-0.1024	-0.1104	-0.1049	-0.0982	-0.1135	-0.0927	-0.6292	-0.0643	-0.0663	-0.0711	-0.0699	-0.0494	-0.0077	0.0299	-0.0706	-0.2183
326.0000	-0.0000	-0.0000	-0.0000	-0.0000	-0.0000	-0.0000	-0.0870	0.1038	0.1282	0.0289	-0.0000	-0.0000	-0.0000	-0.0000	-0.0000	-0.0172	-0.0929	0.1616	0.0962
327.0000	-0.0000	-0.0000	-0.0000	-0.0000	-0.0000	-0.0000	-0.4247	-0.3246	-0.3753	-0.9749	-0.0000	-0.0000	-0.0000	-0.0000	-0.0000	-0.2997	-0.2469	-0.2589	-0.6369
328.0000	-0.0541	-0.0388	-0.0557	-0.0316	0.0341	-0.0560	-0.0157	-0.0547	-0.0347	-0.0345	-0.0491	-0.0183	-0.0352	0.0365	-0.0368	-0.0447	0.0255	-0.0488	-0.0518
329.0000	0.0000	0.0000	0.0000	0.0000	0.0000	-0.0429	-0.1148	0.0083	-0.1140	-0.3998	0.0000	0.0000	0.0000	0.0000	0.0248	-0.1300	-0.1424	-0.1431	-0.6101
330.0000	-0.0000	-0.0000	-0.0000	-0.0000	-0.1367	-0.1283	-0.1304	-0.1359	-0.1134	0.0269	-0.0000	-0.0000	-0.0000	-0.1320	-0.1275	-0.1320	-0.1309	-0.1295	-0.0472
331.0000	-0.0000	-0.0000	-0.0000	-0.0000	-0.0000	-0.0694	-0.0757	-0.0284	0.0563	0.5475	-0.0000	-0.0000	-0.0000	-0.0000	-0.0549	-0.0541	-0.0119	0.3086	0.7559
332.0000	-0.0000	-0.0000	-0.0000	-0.0000	-0.0000	0.0264	0.0756	0.1030	0.0669	-0.0598	-0.0000	-0.0000	-0.0000	-0.0000	0.0325	0.0655	0.1826	0.1713	0.1246
333.0000	-0.0000	-0.0000	-0.0000	-0.0000	-0.0000	-0.0000	-0.1166	-0.1394	0.0009	0.0095	-0.0000	-0.0000	-0.0000	-0.0000	-0.0000	0.0567	-0.0876	-0.0639	0.1858
334.0000	-0.0626	-0.0606	0.0746	-0.0683	-0.0703	-0.0354	-0.0664	-0.0694	-0.0704	-0.5106	-0.0615	0.0112	0.0509	-0.0510	-0.0403	-0.0218	-0.0566	-0.0590	-0.5770
335.0000	-0.0000	-0.0000	-0.0000	-0.0000	0.0139	0.0991	0.1799	0.1076	0.1475	0.0488	-0.0000	-0.0000	-0.0000	0.0288	0.1148	0.1018	0.1552	0.1856	0.5611
336.0000	-0.0681	-0.0526	-0.0642	-0.0641	0.1198	-0.0629	0.2817	-0.0666	-0.0590	-0.9571	-0.0492	-0.0495	-0.0498	-0.0186	0.0042	0.1968	0.1889	-0.0458	-0.5771
337.0000	-0.0000	-0.0000	-0.0000	-0.0000	0.1866	0.1972	0.3289	0.1390	0.1984	0.7903	-0.0000	-0.0000	-0.0000	0.1904	0.2482	0.2475	0.1670	0.1955	0.7606
338.0000	-0.0000	-0.0000	-0.0000	-0.0000	-0.0000	0.1110	-0.0439	-0.0673	-0.0940	-0.2200	-0.0000	-0.0000	-0.0000	-0.0000	-0.0451	0.0720	-0.0173	-0.0617	-0.3507
339.0000	-0.0000	-0.0000	-0.0000	-0.0000	-0.0000	-0.0366	0.1807	0.1953	0.0379	0.0680	-0.0000	-0.0000	-0.0000	-0.0000	0.0477	0.0115	0.2037	0.0607	0.0260
340.0000	-0.0000	-0.0000	-0.0000	0.0607	0.0015	0.2532	-0.0410	0.0224	0.0818	-0.0715	-0.0000	-0.0000	-0.0312	0.0552	0.1025	0.1992	0.0093	0.0104	0.0618
341.0000	-0.0000	-0.0000	-0.0000	-0.0000	-0.1099	-0.0901	-0.0643	-0.0786	-0.1082	-0.6708	-0.0000	-0.0000	-0.0000	-0.1386	-0.1220	-0.1009	-0.1399	-0.1367	-0.6125
342.0000	0.0000	0.0000	0.0000	0.0000	0.0000	-0.1198	0.0466	-0.1359	-0.1318	-0.6605	0.0000	0.0000	0.0000	0.0000	-0.1248	0.0658	-0.0880	-0.1230	-0.5487
343.0000	-0.1591	-0.1506	-0.1938	-0.2572	-0.1480	-0.1788	-0.2181	-0.1263	-0.2104	-1.1455	-0.1699	-0.2215	-0.2296	-0.1816	-0.2597	-0.2074	-0.1565	-0.2686	-0.9013
344.0000	-0.0397	-0.0312	-0.0320	-0.0303	0.0032	-0.0143	-0.0415	0.0259	0.0148	0.2550	-0.0014	-0.0116	-0.0245	0.0349	0.0088	-0.0290	-0.0294	0.0937	0.5685
345.0000	-0.0000	-0.0000	-0.0000	-0.0000	-0.0800	-0.0085	-0.0655	-0.0359	-0.0777	0.0244	-0.0000	-0.0000	-0.0000	0.0369	-0.0366	-0.0554	-0.0554	-0.0347	0.0205
346.0000	-0.0000	-0.0000	-0.0000	-0.0000	-0.0000	-0.0000	-0.1829	-0.1310	-0.1853	-0.2992	-0.0000	-0.0000	-0.0000	-0.0000	-0.0000	-0.1282	-0.1415	-0.1329	-0.3056
347.0000	-0.0000	-0.0000	-0.0000	-0.0000	-0.1325	-0.1204	-0.1046	-0.1421	-0.0368	-0.4572	-0.0000	-0.0000	-0.0000	-0.1231	-0.1076	-0.0947	-0.1207	-0.0932	0.1014
348.0000	-0.0000	-0.0000	-0.0000	-0.0000	-0.0000	-0.0000	-0.2736	-0.3023	-0.3024	-0.7266	-0.0000	-0.0000	-0.0000	-0.0000	-0.0000	-0.2413	-0.2473	-0.2523	-0.5362
349.0000	-0.0507	-0.0155	-0.0398	-0.0630	-0.0328	-0.0228	-0.0457	-0.0563	-0.0587	1.3780	-0.0323	-0.0400	-0.1065	-0.1146	-0.0401	-0.0688	-0.1015	-0.0933	0.6056
350.0000	-0.0000	-0.0000	-0.0000	-0.0000	-0.2052	-0.1542	-0.2704	-0.2376	-0.2683	-0.8470	-0.0000	-0.0000	-0.0000	-0.1978	-0.1678	-0.2278	-0.2432	-0.2344	-0.5972
351.0000	0.0000	0.0000	0.0000	0.0000	0.0000	0.0000	-0.0192	0.1170	-0.0477	1.0213	0.0000	0.0000	0.0000	0.0000	0.0000	-0.0086	0.0702	-0.0656	-0.0443
352.0000	-0.0000	0.3287	0.1386	-0.0329	-0.0226	0.3259	-0.0168	-0.0330	-0.0329	-0.9460	0.1305	0.1640	0.0439	-0.0136	0.1202	0.0082	-0.0328	-0.0327	-0.4422
353.0000	-0.0000	-0.0000	-0.0000	-0.0000	-0.0000	-0.2952	-0.2662	-0.2898	-0.2738	-0.9427	-0.0000	-0.0000	-0.0000	-0.0000	-0.2014	-0.1969	-0.2040	-0.1789	-0.7820
354.0000	0.0000	0.0000	0.0000	0.0000	0.0000	0.2605	0.1490	0.0174	-0.0094	0.2082	0.0000	0.0000	0.0000	0.0000	0.0295	0.2572	0.0310	0.0007	0.2106
355.0000	-0.0000	-0.0000	-0.0000	-0.0000	-0.0000	0.0971	-0.0785	0.1263	-0.0785	-0.2414	-0.0000	-0.0000	-0.0000	-0.0000	0.0718	0.0915	0.1138	-0.0134	-0.1585
356.0000	-0.0000	-0.0000	-0.0000	-0.0182	0.2292	0.2218	0.1841	0.1983	-0.0061	0.3097	-0.0000	-0.0000	0.1190	-0.0071	0.2474	0.2140	0.1071	0.0122	0.2099
357.0000	-0.0000	-0.0000	-0.0000	-0.0000	-0.0383	-0.0011	0.0468	0.6341	0.0280	-0.6945	-0.0000	-0.0000	-0.0000	0.0379	0.0116	0.1024	0.3138	0.1697	-0.3156
358.0000	-0.0000	-0.0214	-0.0207	-0.0229	-0.0215	-0.0162	0.0547	-0.0216	0.5466	1.5362	-0.0233	-0.0246	-0.0253	-0.0248	-0.0172	0.0781	0.0883	0.2760	1.3376
359.0000	-0.0000	-0.0000	-0.0000	-0.0000	-0.0000	-0.0000	-0.2035	-0.2612	-0.3020	-0.6671	-0.0000	-0.0000	-0.0000	-0.0000	-0.0000	-0.2481	-0.2473	-0.2798	-0.4257
360.0000	-0.0000	-0.1789	-0.1040	-0.1079	-0.1779	-0.1562	-0.0966	-0.1195	-0.1731	-0.4524	-0.1714	-0.1572	-0.1225	-0.1338	-0.1581	-0.1610	-0.1362	-0.1717	-0.6446
361.0000	0.0000	0.0000	0.0000	0.0000	0.0000	-0.0727	0.1136	-0.0260	-0.0549	0.3845	0.0000	0.0000	0.0000	0.0000	-0.0590	-0.0737	-0.0105	-0.0114	0.6222
362.0000	-0.0000	-0.0000	-0.0000	-0.0000	-0.0000	-0.0000	-0.1685	-0.0698	-0.1721	-0.4651	-0.0000	-0.0000	-0.0000	-0.0000	-0.0000	-0.0369	-0.0903	-0.0392	-0.0592
363.0000	-0.0000	-0.0000	-0.0000	-0.0000	-0.0000	-0.0000	-0.1768	-0.1598	-0.1555	-0.1121	-0.0000	-0.0000	-0.0000	-0.0000	-0.0000	-0.2395	-0.2356	-0.2399	-0.5472
364.0000	0.0000	0.0000	0.0000	0.0000	-0.1800	-0.1835	-0.1837	-0.1832	-0.1819	-1.1366	0.0000	0.0000	0.0000	-0.1298	-0.1463	-0.1412	-0.1510	-0.1496	-1.0033
365.0000	0.0298	0.1180	0.1103	0.0807	0.0906	0.0752	0.0574	0.0148	0.0202	0.3935	0.1254	0.1088	0.1574	0.0552	0.0738	0.0528	0.0325	0.0635	0.4575
366.0000	-0.0000	-0.0000	-0.0000	-0.4189	-0.4153	-0.3681	-0.2526	-0.1279	-0.1995	-1.3387	-0.0000	-0.0000	-0.3365	-0.3758	-0.3194	-0.2795	-0.3049	-0.1327	-1.1965
367.0000	0.0000	0.0000	0.0000	0.0000	-0.0948	-0.0995	-0.0484	-0.0851	0.0020	-0.4031	0.0000	0.0000	0.0000	-0.0719	-0.0915	-0.0075	-0.0692	-0.0606	-0.2051
368.0000	-0.0000	-0.0375	-0.0350	-0.0265	-0.0366	-0.0353	-0.0217	0.3489	0.0190	0.6759	-0.0249	-0.0310	-0.0315	-0.0229	-0.0280	0.0100	0.1095	0.2148	0.7138
369.0000	0.0000	0.0000	0.0000	0.0000	0.0000	0.0000	0.1556	0.0899	0.0234	-0.0360	0.0000	0.0000	0.0000	0.0000	0.0000	0.2500	0.1498	0.1015	0.0188
370.0000	-0.0000	-0.0000	-0.0000	-0.0000	-0.0000	-0.2289	-0.0922	-0.1108	-0.1443	0.0725	-0.0000	-0.0000	-0.0000	-0.0000	-0.2802	-0.1270	-0.1522	-0.1479	-0.2442
371.0000	-0.0000	-0.0000	-0.0000	-0.0189	-0.0346	0.1906	0.2924	-0.0056	0.0234	0.4274	-0.0000	-0.0000	0.1074	-0.0168	-0.0080	0.1423	0.0167	0.0534	0.6795
372.0000	-0.0000	-0.0000	-0.0000	-0.0000	-0.1146	-0.1127	-0.1104	-0.1069	0.0041	-0.5255	-0.0000	-0.0000	-0.0000	-0.0761	-0.0740	-0.0327	-0.0521	0.0225	0.1279
373.0000	-0.0000	-0.0000	-0.0000	-0.0000	-0.0000	-0.0000	0.0524	0.1872	0.0949	1.0476	-0.0000	-0.0000	-0.0000	-0.0000	-0.0000	0.0272	0.0654	0.0454	1.2193
374.0000	-0.0000	-0.0000	-0.0374	0.0203	0.0112	0.0397	0.0266	0.1390	0.0208	0.0964	-0.0000	-0.0172	-0.0162	0.0471	0.0628	0.0981	0.1686	0.1317	-0.0716
375.0000	-0.0000	-0.0000	-0.0000	-0.0000	-0.0000	-0.0000	0.4015	0.0246	0.3161	0.6580	-0.0000	-0.0000	-0.0000	-0.0000	-0.0000	0.2065	0.1527	0.2276	0.7411
376.0000	-0.0000	-0.0000	-0.0000	-0.0000	-0.0000	0.1493	0.0436	0.4245	0.0623	0.2786	-0.0000	-0.0000	-0.0000	-0.0000	0.0965	0.1336	0.3290	0.1835	0.6553
377.0000	-0.0000	-0.0000	-0.0000	-0.0000	-0.0000	-0.0000	-0.0158	0.0653	0.2948	-0.3647	-0.0000	-0.0000	-0.0000	-0.0000	-0.0000	0.1934	0.1293	0.2034	0.1389
378.0000	-0.0000	-0.0000	-0.0000	-0.0000	-0.0000	-0.0000	-0.1390	0.0063	-0.1577	-0.5878	-0.0000	-0.0000	-0.0000	-0.0000	-0.0000	-0.0181	-0.0490	-0.1151	-0.3587
379.0000	-0.1127	-0.1150	-0.1145	-0.1139	-0.0799	-0.0737	-0.0987	-0.1174	-0.1168	-0.5187	-0.1141	-0.1131	-0.1191	-0.0994	-0.0786	-0.1194	-0.1184	-0.1214	-0.3618
380.0000	-0.0000	-0.0000	-0.0000	-0.0000	-0.0000	-0.0000	0.1419	0.3976	-0.0093	0.0219	-0.0000	-0.0000	-0.0000	-0.0000	-0.0000	0.1709	0.2912	0.2391	0.0121
381.0000	-0.0000	-0.0000	-0.0000	-0.0000	-0.0000	-0.7220	-0.8818	-0.5431	-0.4476	-1.8830	-0.0000	-0.0000	-0.0000	-0.0000	-0.4058	-0.8128	-0.6256	-0.3123	-1.7802
382.0000	-0.0000	-0.0000	-0.0000	-0.0000	-0.0000	-0.3669	-0.2508	-0.1544	-0.3167	-0.8035	-0.0000	-0.0000	-0.0000	-0.0000	-0.3313	-0.2558	-0.2596	-0.2514	-0.7864
383.0000	-0.0394	0.1214	-0.0078	-0.0556	-0.0563	-0.0560	-0.0469	-0.0558	-0.0493	-0.2326	0.0014	-0.0226	-0.0198	-0.0650	-0.0581	-0.0600	-0.0612	-0.0647	-0.2511
384.0000	0.0000	0.0000	0.0000	0.0000	0.0180	0.0842	0.1161	0.1124	-0.0380	-0.2271	0.0000	0.0000	0.0000	0.3278	0.0964	-0.0307	0.0204	-0.0421	0.0836
385.0000	0.0000	0.0000	0.0000	0.0000	0.0000	-0.1182	-0.0373	0.0015	-0.1053	-0.5917	0.0000	0.0000	0.0000	0.0000	-0.0986	-0.0341	0.0475	-0.0472	-0.3526
386.0000	-0.0000	-0.0000	-0.0000	-0.0000	-0.0000	-0.0000	-0.1094	-0.0948	-0.1545	-0.4366	-0.0000	-0.0000	-0.0000	-0.0000	-0.0000	-0.0492	-0.0793	-0.1234	-0.2612
387.0000	0.0000	0.0000	0.0000	0.0000	0.0000	-0.0374	0.0855	-0.0260	0.5800	0.5493	0.0000	0.0000	0.0000	0.0000	0.0486	0.0303	0.1202	0.0460	0.6316
388.0000	-0.0000	-0.0000	-0.0000	-0.0000	-0.0000	-0.0000	-0.1978	-0.2387	-0.1695	-0.0911	-0.0000	-0.0000	-0.0000	-0.0000	-0.0000	-0.3311	-0.3450	-0.3137	-1.0012
389.0000	-0.0000	-0.0000	-0.0000	-0.0000	-0.0419	0.2222	0.1268	-0.0419	0.2815	0.1052	-0.0000	-0.0000	-0.0000	0.0573	-0.0338	0.1918	0.0643	0.1399	0.5772
390.0000	-0.0000	-0.0000	-0.0000	-0.0000	-0.0000	-0.1324	-0.1333	-0.1498	-0.1534	-0.3245	-0.0000	-0.0000	-0.0000	-0.0000	-0.1998	-0.1694	-0.1808	-0.1971	-0.3184
391.0000	-0.0000	-0.0000	-0.0000	-0.0000	-0.0000	-0.0000	0.5664	-0.0374	0.4100	0.1408	-0.0000	-0.0000	-0.0000	-0.0000	-0.0000	0.3875	-0.0011	0.0631	0.2444
392.0000	-0.0000	-0.0000	-0.0000	-0.0000	-0.0000	-0.0000	-0.2102	-0.2198	-0.2313	-0.7319	-0.0000	-0.0000	-0.0000	-0.0000	-0.0000	-0.1900	-0.1702	-0.1595	-0.5792
393.0000	-0.0000	-0.0000	-0.0000	-0.0000	-0.0000	-0.0000	-0.2686	-0.2557	-0.3032	-1.0095	-0.0000	-0.0000	-0.0000	-0.0000	-0.0000	-0.2084	-0.2427	-0.2396	-1.0289
394.0000	-0.0562	-0.1423	-0.0810	-0.1312	-0.1143	-0.1168	-0.2541	-0.1736	-0.1262	-0.3806	-0.0999	-0.1006	-0.1083	-0.1375	-0.1432	-0.1812	-0.2446	-0.1585	-0.3781
395.0000	0.0904	0.0182	0.0375	0.1125	0.0416	0.0651	0.0489	0.1285	0.1555	0.9151	0.0534	0.0202	0.0654	0.1362	0.0884	0.0909	0.1286	0.1581	0.7801
396.0000	-0.0000	-0.0000	-0.0000	-0.0000	-0.0471	-0.0579	-0.0814	0.0131	-0.0762	-0.0320	-0.0000	-0.0000	-0.0000	-0.0723	-0.0301	-0.0933	-0.0855	-0.0852	-0.2758
397.0000	-0.0000	-0.0000	-0.0000	-0.0000	-0.0000	-0.0614	-0.0322	-0.0580	0.0672	1.0663	-0.0000	-0.0000	-0.0000	-0.0000	-0.0487	0.0474	-0.0001	0.0651	0.9248
398.0000	-0.0000	-0.0000	-0.0000	-0.0000	-0.0000	-0.0494	0.2167	-0.0606	0.2540	0.0203	-0.0000	-0.0000	-0.0000	-0.0000	-0.0639	0.0391	0.0855	-0.0096	0.2892
399.0000	-0.0000	-0.0000	-0.0000	-0.0000	-0.0000	-0.0000	0.0958	0.0772	0.0468	0.0372	-0.0000	-0.0000	-0.0000	-0.0000	-0.0000	0.3305	0.0345	0.0766	0.4387
400.0000	-0.0000	-0.0000	-0.0000	-0.0178	-0.0202	0.0693	0.2555	0.0498	0.0751	0.0277	-0.0000	-0.0000	-0.0332	-0.0254	-0.0118	0.2577	0.1495	0.0417	0.1233
401.0000	0.0375	0.0485	0.0319	-0.0157	0.0451	0.0617	0.2309	0.0013	0.1223	0.5395	0.0826	0.0753	0.0362	0.0759	0.1211	0.1275	0.0130	0.0335	0.8005
402.0000	-0.0000	-0.0000	-0.0000	-0.0000	-0.0000	-0.0719	-0.0726	-0.0670	-0.0115	1.0947	-0.0000	-0.0000	-0.0000	-0.0000	-0.0637	-0.0687	-0.0426	0.0351	0.5220
403.0000	-0.0000	-0.0000	-0.0000	-0.0000	-0.2488	-0.2428	-0.2318	-0.2548	-0.2650	-1.4744	-0.0000	-0.0000	-0.0000	-0.1972	-0.1811	-0.1897	-0.1969	-0.2030	-0.5582
404.0000	-0.0241	-0.0064	-0.0515	0.0563	-0.0257	-0.0515	-0.0444	-0.0505	0.0368	-0.5759	0.0467	-0.0260	-0.0447	0.0143	-0.0560	-0.0553	-0.0375	-0.0496	-0.3619
405.0000	-0.0000	-0.0000	-0.0000	-0.1002	-0.1115	-0.1185	-0.1249	-0.1280	-0.0693	-0.5240	-0.0000	-0.0000	-0.1324	-0.1416	-0.1455	-0.1438	-0.1389	-0.1455	-0.4738
406.0000	-0.0000	-0.0478	-0.0975	-0.0858	-0.0735	-0.0828	-0.0899	-0.0737	-0.0960	-0.6592	-0.0774	-0.0966	-0.1078	-0.0978	-0.0923	-0.0924	-0.1067	-0.1055	-0.6204
407.0000	-0.0000	-0.0000	-0.0000	-0.0000	0.0230	0.1312	0.1599	-0.0141	-0.0382	0.1612	-0.0000	-0.0000	-0.0000	0.1410	0.0496	0.1237	0.0948	0.0182	0.1009
408.0000	-0.0000	-0.0000	-0.0000	-0.0000	-0.0000	0.2887	0.2861	0.2831	0.3696	1.0224	-0.0000	-0.0000	-0.0000	-0.0000	0.1396	0.3600	0.3746	0.3718	1.1399
409.0000	-0.0000	-0.0000	-0.0000	-0.0000	-0.0000	-0.0953	-0.0218	0.0415	-0.0927	-0.1881	-0.0000	-0.0000	-0.0000	-0.0000	-0.1011	-0.0950	-0.0549	0.0010	-0.0146
410.0000	0.0091	-0.0053	-0.0503	-0.0132	-0.0399	0.0249	-0.0214	-0.0504	-0.0492	-0.3594	0.0284	-0.0306	-0.0202	0.0562	-0.0050	0.0155	-0.0317	-0.0447	-0.2704
411.0000	-0.0000	-0.0000	-0.0000	-0.0000	-0.0000	-0.1656	-0.1848	-0.1717	-0.1841	-0.5103	-0.0000	-0.0000	-0.0000	-0.0000	-0.1856	-0.1841	-0.1809	-0.1762	-0.2903
412.0000	-0.0000	-0.0000	-0.0000	-0.0000	-0.1679	-0.1659	-0.1726	-0.1497	-0.1670	-0.8114	-0.0000	-0.0000	-0.0000	-0.1555	-0.1707	-0.1727	-0.1529	-0.1783	-0.5888
413.0000	-0.0189	0.1391	0.0028	0.0391	-0.0262	0.0094	0.1071	0.0540	0.0601	-0.4998	0.0335	0.0394	0.0552	0.0437	0.0161	0.1162	0.0815	0.1135	0.1683
414.0000	-0.0000	-0.0000	-0.0000	-0.0000	-0.0102	0.0059	-0.0395	0.0852	0.2382	-0.2830	-0.0000	-0.0000	-0.0000	0.1299	0.0054	0.0319	0.0804	0.1081	0.3509
415.0000	-0.0000	-0.0000	-0.0000	-0.0000	-0.0000	-0.1699	-0.1756	-0.1336	-0.1717	-0.8422	-0.0000	-0.0000	-0.0000	-0.0000	-0.1596	-0.1469	-0.1185	-0.1531	-0.6611
416.0000	-0.1093	-0.1098	-0.0846	-0.1044	-0.1112	-0.1175	-0.1159	-0.1165	-0.1125	-0.7086	-0.1143	-0.0920	-0.1037	-0.1169	-0.1183	-0.1087	-0.1170	-0.1186	-0.5372
417.0000	-0.0000	-0.0000	-0.0000	-0.0000	-0.0000	0.0312	-0.0290	0.0102	0.0582	-0.0458	-0.0000	-0.0000	-0.0000	-0.0000	-0.0413	-0.0063	-0.0068	0.0369	0.0699
418.0000	-0.0638	-0.0417	-0.0610	-0.0638	0.0673	-0.0579	-0.0638	-0.0636	-0.0612	-0.1620	-0.0381	-0.0435	-0.0399	0.0256	0.0112	-0.0455	-0.0568	-0.0476	-0.2568
419.0000	0.0000	0.0000	0.0000	0.0000	0.0000	0.0000	-0.0674	0.3135	0.4022	-0.5838	0.0000	0.0000	0.0000	0.0000	0.0000	0.0458	-0.0381	0.3551	0.3483
420.0000	-0.0000	-0.0000	-0.0000	-0.0000	-0.0000	-0.0494	-0.0303	-0.0513	0.2516	1.0461	-0.0000	-0.0000	-0.0000	-0.0000	-0.0447	-0.0072	0.0165	0.2411	0.7638
421.0000	-0.0000	-0.0000	-0.0000	-0.1122	-0.1195	-0.1199	-0.1142	-0.1222	-0.1135	-0.2187	-0.0000	-0.0000	-0.1174	-0.0996	-0.1093	-0.1175	-0.1175	-0.1153	-0.4044
422.0000	-0.0702	-0.0860	-0.0865	-0.0761	-0.0865	-0.0853	-0.0857	-0.0577	-0.0797	-0.6989	-0.0607	-0.0615	-0.0636	-0.0702	-0.0639	-0.0606	-0.0411	-0.0038	-0.5059
423.0000	-0.0000	-0.0000	-0.0000	-0.0000	-0.0000	-0.0000	0.0149	-0.0347	0.0435	0.4923	-0.0000	-0.0000	-0.0000	-0.0000	-0.0000	0.2734	0.0264	0.0513	0.2180
424.0000	-0.0000	-0.0811	-0.0771	-0.0186	-0.0766	-0.0824	-0.0284	-0.0452	-0.0822	-0.4828	-0.0772	-0.0771	-0.0773	-0.0578	-0.0762	-0.0768	-0.0223	-0.0600	-0.3040
425.0000	-0.0662	-0.0599	-0.0538	-0.0667	-0.0019	-0.0647	-0.0632	-0.0606	-0.0434	-0.4655	-0.0682	-0.0574	-0.0750	-0.0751	-0.0733	-0.0757	-0.0682	-0.0535	-0.0778
426.0000	-0.0000	-0.0000	-0.0000	-0.0000	-0.0714	-0.0702	0.1293	-0.0004	0.0132	-0.0672	-0.0000	-0.0000	-0.0000	-0.0472	-0.0459	0.0654	0.1049	0.1709	-0.0024
427.0000	-0.0000	-0.0000	-0.0000	-0.0394	-0.0719	-0.0598	0.1291	-0.0300	-0.0732	-0.2667	-0.0000	-0.0000	-0.0883	-0.0844	-0.0827	-0.0724	0.1139	-0.0829	-0.3241
428.0000	-0.0853	-0.1023	-0.0617	-0.0512	-0.0392	-0.0929	-0.1036	-0.0873	-0.1002	-0.4113	-0.0906	-0.0891	-0.0577	-0.0695	-0.0921	-0.0636	-0.0694	-0.0825	-0.1775
429.0000	-0.0000	-0.0000	-0.0000	-0.0000	-0.0000	-0.0000	0.0814	0.1714	0.3981	0.4717	-0.0000	-0.0000	-0.0000	-0.0000	-0.0000	0.1399	0.2831	0.2303	0.4134
430.0000	-0.0000	-0.0000	-0.0000	-0.0000	-0.0000	-0.1705	-0.1554	-0.1473	-0.1694	-0.5487	-0.0000	-0.0000	-0.0000	-0.0000	-0.1536	-0.1552	-0.1537	-0.1678	-0.3809
431.0000	-0.0000	-0.0000	-0.0000	-0.0000	-0.0000	-0.2402	-0.2190	-0.2206	-0.1895	-0.5074	-0.0000	-0.0000	-0.0000	-0.0000	-0.2151	-0.2340	-0.2424	-0.2424	-0.5076
432.0000	-0.0000	-0.0000	-0.0000	-0.0000	-0.0000	-0.0458	-0.0651	-0.0337	0.0780	-0.1830	-0.0000	-0.0000	-0.0000	-0.0000	-0.0394	0.0647	0.0126	0.0087	-0.1435
433.0000	-0.0000	-0.0000	-0.0607	-0.0716	-0.0707	-0.0821	0.2659	0.0323	-0.0718	-0.4723	-0.0000	-0.0671	-0.0591	-0.0624	-0.0473	0.1278	0.1107	-0.0440	-0.6721
434.0000	-0.0720	-0.0840	-0.0838	-0.0834	-0.0762	-0.0811	-0.0812	-0.0832	-0.0879	-0.8507	-0.0640	-0.0733	-0.0620	-0.0716	-0.0698	-0.0628	-0.0707	-0.0752	-0.7290
435.0000	0.0000	0.0000	0.0000	0.0000	0.0000	0.0000	0.1698	0.3123	0.2807	0.7553	0.0000	0.0000	0.0000	0.0000	0.0000	0.2366	0.3547	0.2900	0.6864
436.0000	-0.0000	-0.0000	-0.0000	-0.0000	-0.0000	-0.0000	-0.0453	-0.1263	-0.0925	0.0111	-0.0000	-0.0000	-0.0000	-0.0000	-0.0000	0.0649	-0.0533	-0.0860	0.2583
437.0000	-0.0000	-0.0000	-0.0000	-0.0000	-0.0000	-0.0000	-0.1426	-0.1569	-0.1896	-0.6323	-0.0000	-0.0000	-0.0000	-0.0000	-0.0000	-0.0357	-0.0971	-0.1544	-0.6131
438.0000	-0.0000	-0.0000	-0.0000	-0.0000	-0.0000	-0.0000	-0.3048	-0.5335	-0.5365	-1.2978	-0.0000	-0.0000	-0.0000	-0.0000	-0.0000	-0.4189	-0.3877	-0.4980	-1.1709
439.0000	-0.0000	-0.0000	-0.0000	-0.0000	-0.0000	-0.0605	-0.0654	0.4555	0.1040	-0.4854	-0.0000	-0.0000	-0.0000	-0.0000	0.1295	-0.0491	-0.0589	0.1195	0.0851
440.0000	-0.0000	-0.0000	-0.0000	-0.0000	-0.0000	-0.1311	-0.0491	-0.0904	-0.1411	-0.4684	-0.0000	-0.0000	-0.0000	-0.0000	-0.1040	-0.1206	-0.0551	-0.0593	-0.4603
441.0000	-0.0000	-0.0000	-0.0000	-0.0000	-0.0000	-0.0000	-0.3204	-0.4344	-0.3759	-0.9971	-0.0000	-0.0000	-0.0000	-0.0000	-0.0000	-0.2448	-0.3807	-0.3983	-0.8776
442.0000	-0.0000	-0.0000	-0.0000	-0.0000	-0.0000	-0.0000	-0.1156	-0.1081	0.3212	-0.4496	-0.0000	-0.0000	-0.0000	-0.0000	-0.0000	-0.0011	-0.0329	-0.1034	-0.3881
443.0000	-0.0000	-0.0000	-0.0000	-0.0000	-0.0000	-0.0000	-0.8380	-0.5340	-0.8725	-1.8182	-0.0000	-0.0000	-0.0000	-0.0000	-0.0000	-0.7745	-0.6706	-0.4658	-1.7197
444.0000	-0.0668	-0.1088	-0.1086	-0.1017	-0.1079	-0.1055	-0.1083	-0.1088	-0.0897	-0.5848	-0.0768	-0.0856	-0.0878	-0.0786	-0.0894	-0.0892	-0.0885	-0.0744	-0.2468
445.0000	-0.0000	-0.0000	-0.0000	-0.0000	-0.0357	-0.0453	-0.0435	0.0343	0.4477	0.1589	-0.0000	-0.0000	-0.0000	0.0034	-0.0451	-0.0484	-0.0112	0.2131	0.6260
446.0000	-0.0000	-0.0000	-0.0000	-0.0759	-0.3617	-0.1860	-0.8912	-0.2023	-1.6362	-2.3693	-0.0000	-0.0000	-0.1069	-0.1385	-0.1402	-0.3717	-0.2149	-1.3417	-2.2546
447.0000	-0.0000	-0.0000	-0.0000	-0.0000	-0.0000	-0.0181	-0.0895	-0.0653	-0.0090	-0.0637	-0.0000	-0.0000	-0.0000	-0.0000	-0.0641	-0.0106	-0.0657	0.0950	0.3762
448.0000	-0.0000	-0.0000	-0.0000	-0.0000	-0.0000	-0.0693	0.0156	-0.0697	-0.0163	0.8114	-0.0000	-0.0000	-0.0000	-0.0000	-0.0779	-0.0831	-0.0678	-0.0706	0.7188
449.0000	-0.0000	-0.0000	0.0935	0.0367	0.0468	0.1160	-0.0312	0.0592	-0.0173	0.2409	-0.0000	0.0235	0.1089	0.0385	0.1184	0.0239	0.0500	0.0759	0.2305
450.0000	-0.0581	0.0376	-0.0512	-0.0620	0.2536	-0.0629	-0.0591	-0.0604	-0.0594	-0.3751	-0.0420	-0.0725	-0.0792	0.0494	-0.0726	-0.0769	-0.0789	-0.0770	-0.5254
451.0000	-0.0000	-0.0000	-0.0000	-0.0000	-0.0000	-0.0000	-0.1012	-0.0448	0.0515	0.0088	-0.0000	-0.0000	-0.0000	-0.0000	-0.0000	0.0017	0.0082	-0.0229	0.1685
452.0000	0.0000	0.0574	0.0607	-0.0039	0.0776	-0.0025	0.0170	-0.0201	0.1105	0.3658	0.0951	0.1006	0.0212	0.0728	0.0419	0.0330	-0.0039	0.0228	0.6313
453.0000	0.0242	0.0816	0.1839	0.0640	0.1821	0.1253	0.0720	0.2106	0.0671	0.5733	0.0223	0.1330	0.1089	0.0685	0.1590	0.0976	0.0941	0.1054	0.2637
454.0000	-0.0000	-0.0000	-0.0000	-0.0000	-0.1372	-0.1155	-0.1366	-0.1384	-0.1370	-0.2061	-0.0000	-0.0000	-0.0000	-0.1529	-0.1529	-0.1521	-0.1473	-0.1495	-0.2196
455.0000	-0.0000	-0.0000	-0.0000	-0.0000	-0.0771	-0.0838	-0.0249	-0.1061	-0.1101	-1.0059	-0.0000	-0.0000	-0.0000	-0.0522	-0.0098	0.0124	0.0013	-0.0610	-0.4805
456.0000	-0.0000	-0.0000	-0.0000	-0.0000	-0.0000	-0.0000	-0.1898	-0.0925	-0.1859	-1.1040	-0.0000	-0.0000	-0.0000	-0.0000	-0.0000	-0.1280	-0.1683	-0.1766	-0.4133
457.0000	-0.0000	-0.0000	-0.0000	-0.0000	-0.0000	-0.0736	-0.0837	0.0538	-0.0581	-0.0453	-0.0000	-0.0000	-0.0000	-0.0000	-0.0730	-0.0551	-0.0413	-0.0687	-0.0170
458.0000	-0.0000	-0.0000	-0.0000	-0.0000	-0.0000	-0.0000	-0.0548	-0.1235	-0.1019	0.4616	-0.0000	-0.0000	-0.0000	-0.0000	-0.0000	-0.1850	-0.1964	-0.1956	-0.4011
459.0000	-0.0000	-0.0000	-0.0000	-0.0000	-0.0997	0.0497	-0.0990	-0.0991	-0.0990	0.0805	-0.0000	-0.0000	-0.0000	-0.1326	-0.1660	-0.1651	-0.1638	-0.1373	-0.6108
460.0000	-0.0000	-0.0000	-0.0000	-0.0000	-0.0000	0.2736	-0.0744	-0.0283	0.0515	-0.7080	-0.0000	-0.0000	-0.0000	-0.0000	0.0700	0.1753	-0.0186	0.0430	0.1738
461.0000	-0.0000	-0.0000	-0.0000	-0.0000	-0.0000	-0.0000	0.1583	-0.0342	-0.0688	-0.3186	-0.0000	-0.0000	-0.0000	-0.0000	-0.0000	0.0510	-0.0032	-0.0499	-0.0567
462.0000	-0.0000	-0.0000	-0.0000	-0.0000	-0.0000	-0.2735	-0.2671	-0.3724	-0.4820	-1.1304	-0.0000	-0.0000	-0.0000	-0.0000	-0.3894	-0.2760	-0.3584	-0.4527	-1.1558
463.0000	-0.0000	-0.0000	-0.0000	-0.0000	0.2077	-0.0685	-0.0479	-0.0295	-0.0478	-0.3493	-0.0000	-0.0000	-0.0000	0.0037	-0.0189	-0.0438	-0.0695	-0.0094	-0.3143
464.0000	-0.0000	-0.0000	0.2337	0.1648	0.1134	-0.0209	-0.0288	-0.0024	-0.0013	0.4467	-0.0000	0.0715	0.1787	0.1114	0.0565	-0.0128	-0.0042	0.0048	0.2197
465.0000	-0.0000	-0.0000	-0.0000	-0.0000	-0.0000	-0.0000	-0.1846	-0.1872	-0.0137	-0.7956	-0.0000	-0.0000	-0.0000	-0.0000	-0.0000	-0.1042	-0.1352	-0.0811	-0.4203
466.0000	-0.0000	-0.0000	-0.0835	-0.0645	-0.0862	-0.0858	-0.0868	0.0522	-0.0859	-0.4673	-0.0000	-0.0802	-0.0519	-0.0590	-0.0724	-0.0797	-0.0532	-0.0502	-0.3944
467.0000	-0.0000	-0.0000	-0.0000	-0.0000	-0.0000	-0.1864	-0.1192	-1.1544	-0.4190	-3.2739	-0.0000	-0.0000	-0.0000	-0.0000	-0.7409	-0.4586	-0.4420	-1.8374	-3.7913
468.0000	-0.0000	-0.0000	-0.0000	-0.0831	-0.0837	-0.0682	-0.0769	-0.0833	-0.0766	1.0397	-0.0000	-0.0000	-0.0787	-0.0765	-0.0785	-0.0768	-0.0789	-0.0786	0.9945
469.0000	-0.0000	-0.0000	-0.0000	-0.0000	-0.0000	-0.1263	-0.1425	-0.1425	-0.1301	-0.2908	-0.0000	-0.0000	-0.0000	-0.0000	-0.0442	-0.0921	-0.1141	-0.1068	-0.1772
470.0000	-0.0000	-0.0000	-0.1563	-0.1932	-0.1166	-0.0698	-0.2035	-0.2047	-0.1980	-0.5175	-0.0000	-0.1700	-0.1542	-0.1557	-0.1054	-0.1728	-0.1723	-0.1700	-0.6420
471.0000	-0.0000	-0.0000	-0.0000	-0.0000	-0.0000	-0.0000	0.4347	0.2251	0.0191	1.4012	-0.0000	-0.0000	-0.0000	-0.0000	-0.0000	0.3551	0.5265	0.1478	0.3031
472.0000	-0.0000	-0.0000	-0.0000	-0.0000	-0.0000	-0.1943	-0.1844	-0.1767	-0.1604	-0.3486	-0.0000	-0.0000	-0.0000	-0.0000	-0.2201	-0.2092	-0.1964	-0.2215	-0.6700
473.0000	-0.0235	0.0725	-0.0227	0.0431	-0.0028	-0.0089	-0.0168	0.2756	0.4167	0.0258	-0.0136	0.0350	-0.0015	0.0096	-0.0004	-0.0013	0.1795	0.3358	0.8849
474.0000	-0.0000	-0.0000	-0.0000	-0.0000	-0.0000	-0.0407	0.0940	0.0733	0.4712	-0.4668	-0.0000	-0.0000	-0.0000	-0.0000	0.2175	0.0487	0.1121	0.2981	0.4016
475.0000	-0.0000	-0.0000	-0.0000	-0.0000	-0.0000	-0.0000	-0.0704	-0.0461	-0.0479	1.6549	-0.0000	-0.0000	-0.0000	-0.0000	-0.0000	-0.1001	-0.0609	-0.0709	1.4060
476.0000	-0.0000	-0.0000	-0.0000	-0.0000	-0.0000	-0.0728	0.1383	-0.0044	0.1178	-0.6881	-0.0000	-0.0000	-0.0000	-0.0000	0.1026	0.0556	0.0976	0.1305	-0.5074
477.0000	-0.0000	-0.0000	-0.0000	-0.0000	-0.0000	0.0682	0.0351	0.1226	0.0947	0.0393	-0.0000	-0.0000	-0.0000	-0.0000	0.1202	0.1024	0.1418	0.0471	0.0897
478.0000	-0.0000	-0.0000	-0.0000	-0.0000	-0.0000	-0.0888	-0.0673	-0.1114	-0.0902	-0.1345	-0.0000	-0.0000	-0.0000	-0.0000	-0.0349	-0.0404	-0.0610	-0.0266	0.2289
479.0000	0.0000	0.0000	0.0000	0.0000	-0.0959	-0.0965	-0.0689	0.0391	-0.0800	0.0369	0.0000	0.0000	0.0000	-0.0617	-0.0787	-0.0367	-0.0172	-0.0759	0.3930
480.0000	-0.0497	-0.0576	0.0780	-0.0583	-0.0571	-0.0266	-0.0581	-0.0149	-0.0570	-0.4295	-0.0620	-0.0664	-0.0226	-0.0714	-0.0686	-0.0692	-0.0334	-0.0424	-0.6182
481.0000	-0.0000	-0.0000	-0.0000	-0.0000	-0.0000	-0.0000	-0.0596	-0.0402	0.1470	0.0809	-0.0000	-0.0000	-0.0000	-0.0000	-0.0000	-0.0213	-0.0273	0.0851	0.3716
482.0000	-0.0000	-0.0000	-0.0000	-0.0000	-0.0000	-0.0000	-0.0114	0.3974	0.4619	0.7539	-0.0000	-0.0000	-0.0000	-0.0000	-0.0000	-0.0207	0.3613	0.4884	0.6772
483.0000	-0.0000	-0.0000	-0.0000	-0.0000	-0.0000	-0.0000	-0.1274	-0.1279	-0.0365	0.2036	-0.0000	-0.0000	-0.0000	-0.0000	-0.0000	-0.0917	-0.1006	-0.0381	0.6382
484.0000	0.0000	-0.0435	-0.0543	-0.0109	-0.0442	-0.0553	-0.0552	-0.0093	-0.0417	0.3391	-0.0433	-0.0488	-0.0484	0.0278	-0.0444	-0.0440	-0.0315	-0.0195	0.0571
485.0000	-0.0000	-0.0000	-0.0000	-0.0000	-0.0000	-0.0000	-0.3192	-0.3098	-0.3181	-0.9615	-0.0000	-0.0000	-0.0000	-0.0000	-0.0000	-0.2019	-0.2143	-0.2148	-0.5086
486.0000	0.0000	0.0000	0.0000	0.0000	0.0000	0.0000	-0.0410	0.0859	0.0781	0.9417	0.0000	0.0000	0.0000	0.0000	0.0000	-0.0350	0.1169	0.2139	0.7931
487.0000	-0.0000	-0.0000	-0.0000	-0.0000	-0.0000	-0.0000	-0.1895	-0.1893	-0.1221	-0.4109	-0.0000	-0.0000	-0.0000	-0.0000	-0.0000	0.0007	-0.1017	-0.0658	0.3458
488.0000	-0.0000	0.0055	0.0761	0.0811	0.0901	0.0253	0.1310	0.1261	0.0978	-0.0176	0.0024	0.0928	0.1357	0.1013	0.0812	0.0474	0.1391	0.1549	0.0884
489.0000	-0.0000	-0.0000	-0.0000	-0.0000	-0.0000	-0.0000	-0.1099	-0.0052	-0.0426	-0.0554	-0.0000	-0.0000	-0.0000	-0.0000	-0.0000	-0.0607	-0.0672	0.0813	-0.0750
490.0000	-0.0000	-0.0000	-0.0000	-0.0000	-0.0000	-0.0000	0.4726	0.2420	0.1637	0.3162	-0.0000	-0.0000	-0.0000	-0.0000	-0.0000	0.2912	0.3542	0.2671	0.5793
491.0000	-0.1176	-0.0910	-0.1142	-0.1163	-0.1153	-0.1134	-0.1157	-0.1047	-0.0825	-0.8025	-0.0922	-0.0617	-0.1048	-0.0955	-0.1070	-0.1110	-0.1008	-0.1026	-0.7876
492.0000	-0.0000	-0.0000	-0.0000	-0.0000	-0.0000	-0.0000	-0.1642	-0.1669	-0.1093	-0.3535	-0.0000	-0.0000	-0.0000	-0.0000	-0.0000	-0.0748	-0.1063	-0.0919	0.0476
493.0000	-0.0000	-0.0000	-0.0000	-0.0000	-0.0000	-0.0000	-0.5141	-0.4994	-0.3133	-1.2107	-0.0000	-0.0000	-0.0000	-0.0000	-0.0000	-0.4489	-0.3263	-0.3378	-1.0284
494.0000	0.0000	0.0000	0.0000	0.0000	0.0000	-0.0058	0.0181	0.0595	0.0687	0.8923	0.0000	0.0000	0.0000	0.0000	0.1981	0.0381	0.0984	0.1453	0.4378
495.0000	-0.0675	-0.0662	-0.0670	-0.0675	0.0225	-0.0527	0.0034	-0.0666	-0.0666	-0.5129	-0.0633	-0.0649	-0.0650	-0.0350	-0.0357	-0.0174	0.0097	-0.0621	-0.4672
496.0000	-0.0587	-0.0585	-0.0586	-0.0492	-0.0466	-0.0337	0.0569	-0.0311	-0.0540	-0.0405	-0.0559	-0.0555	-0.0573	-0.0419	-0.0371	0.0132	-0.0095	-0.0345	-0.1459
497.0000	-0.0000	-0.0000	-0.0255	-0.0278	-0.0276	0.0138	0.2189	0.2811	0.2932	0.3426	-0.0000	-0.0253	-0.0252	-0.0253	0.0020	0.1962	0.2664	0.3246	0.5861
498.0000	-0.0857	-0.0854	-0.0874	-0.0876	-0.0864	-0.0817	-0.0820	-0.0860	-0.0616	-0.1918	-0.0681	-0.0665	-0.0609	-0.0511	-0.0677	-0.0412	-0.0298	-0.0030	-0.2023
499.0000	-0.0000	-0.0000	-0.0000	-0.0000	-0.0000	-0.3910	-0.4359	-0.3582	-0.8038	-2.0173	-0.0000	-0.0000	-0.0000	-0.0000	-0.8301	-0.3518	-0.3552	-0.5593	-2.0401
500.0000	-0.0141	-0.0286	-0.0189	0.0349	-0.0326	-0.0311	0.1695	0.1326	-0.0184	-0.0429	-0.0232	-0.0150	-0.0082	-0.0245	-0.0124	0.1640	0.1516	0.1130	0.0459
501.0000	-0.0000	-0.0000	-0.0000	-0.0384	-0.0718	-0.0634	-0.0432	-0.0652	-0.0586	1.4206	-0.0000	-0.0000	-0.0381	-0.0845	-0.0885	-0.0792	-0.0883	-0.0887	0.9184
502.0000	-0.0000	-0.0000	-0.0000	-0.0000	-0.0000	-0.1370	-0.1421	-0.1232	-0.1296	-0.3570	-0.0000	-0.0000	-0.0000	-0.0000	-0.1280	-0.1194	-0.0961	-0.1233	-0.4695
503.0000	-0.0000	-0.0000	-0.0000	-0.0097	0.0956	0.2279	0.0696	0.0406	0.0666	0.3992	-0.0000	-0.0000	0.0147	0.1630	0.2507	0.1399	0.0650	0.0599	0.3997
504.0000	-0.0812	-0.0801	-0.0763	-0.0379	-0.0800	-0.0808	-0.0717	-0.0610	-0.0738	-0.3747	-0.0793	-0.0824	-0.0797	-0.0641	-0.0837	-0.0835	-0.0800	-0.0845	-0.2531
505.0000	-0.0000	-0.0000	-0.0000	-0.0000	-0.0000	-0.0000	-0.1802	-0.0498	-0.1785	-0.8089	-0.0000	-0.0000	-0.0000	-0.0000	-0.0000	-0.1660	-0.1799	-0.1750	-0.6777
506.0000	-0.0000	-0.0000	-0.0000	-0.0000	-0.0000	-0.0000	-0.4916	-0.3188	-0.3096	-1.0798	-0.0000	-0.0000	-0.0000	-0.0000	-0.0000	-0.5012	-0.4856	-0.5229	-1.3154
507.0000	-0.0000	-0.0000	-0.5073	-0.3148	-0.5962	-1.0251	-0.2585	-0.5883	-0.1473	-2.2336	-0.0000	-0.1391	-0.6077	-0.5165	-0.9158	-0.4354	-0.3014	-0.2138	-2.0824
508.0000	-0.0000	-0.0000	-0.0000	-0.0000	-0.0000	-0.0000	-0.1559	-0.1519	0.0452	-0.5990	-0.0000	-0.0000	-0.0000	-0.0000	-0.0000	-0.0726	-0.0898	0.0141	-0.1879
509.0000	-0.0000	-0.0000	-0.0000	-0.0000	-0.0000	0.2456	-0.0146	0.3412	0.3527	1.0031	-0.0000	-0.0000	-0.0000	-0.0000	0.1472	-0.0144	0.1509	0.4406	1.0287
510.0000	-0.0000	-0.0000	-0.0000	-0.0000	-0.0000	-0.0000	-0.0518	-0.0603	0.3306	1.0552	-0.0000	-0.0000	-0.0000	-0.0000	-0.0000	-0.0602	-0.0598	0.2316	1.1266
511.0000	-0.0000	-0.0000	-0.0000	-0.0000	-0.0185	-0.0349	-0.0306	0.2988	0.0297	1.5293	-0.0000	-0.0000	-0.0000	-0.0165	-0.0335	-0.0291	0.1948	0.2273	1.2455
512.0000	-0.0000	-0.0000	-0.0000	-0.0000	-0.0000	0.0287	0.2068	-0.0100	0.0412	0.0863	-0.0000	-0.0000	-0.0000	-0.0000	0.0776	0.0260	0.0370	-0.0026	0.1926
513.0000	-0.0000	-0.0000	-0.0000	-0.0000	-0.0000	-0.0000	-0.0157	-0.0394	-0.0448	1.1609	-0.0000	-0.0000	-0.0000	-0.0000	-0.0000	0.0607	-0.0378	-0.0404	-0.1411
514.0000	-0.0000	-0.0000	-0.0000	-0.0000	-0.0000	-0.0000	-0.1945	-0.2050	-0.1842	-0.7090	-0.0000	-0.0000	-0.0000	-0.0000	-0.0000	-0.1723	-0.1726	-0.1896	-0.6178
515.0000	-0.0000	-0.0000	-0.0000	-0.0000	-0.0000	-0.0000	-0.0409	0.2340	0.2759	1.0039	-0.0000	-0.0000	-0.0000	-0.0000	-0.0000	-0.0403	0.1957	0.2543	0.9612
516.0000	0.0508	0.1623	0.1538	0.1270	0.1474	0.0532	0.0854	0.0524	0.0404	0.5227	0.1786	0.1730	0.1637	0.1094	0.0970	0.0835	0.0693	0.0582	0.4663
517.0000	-0.0000	-0.0000	-0.0000	-0.0000	-0.0000	-0.0000	-0.2960	-0.2584	-0.2737	-0.6834	-0.0000	-0.0000	-0.0000	-0.0000	-0.0000	-0.2371	-0.2227	-0.2346	-0.6507
518.0000	0.0000	0.0000	0.0000	0.0000	0.0000	0.0000	0.0967	0.7625	0.1712	0.6975	0.0000	0.0000	0.0000	0.0000	0.0000	0.3722	0.0925	0.3855	0.6657
519.0000	-0.0000	-0.0000	-0.0000	-0.0000	-0.0000	-0.0000	-0.0829	-0.0256	-0.0502	-0.6590	-0.0000	-0.0000	-0.0000	-0.0000	-0.0000	0.0261	-0.0706	0.0361	-0.2012
520.0000	-0.0000	-0.0000	-0.0000	-0.0000	-0.0000	-0.0000	0.1066	0.0830	0.2358	0.2847	-0.0000	-0.0000	-0.0000	-0.0000	-0.0000	0.0797	0.0986	0.0945	0.3869
521.0000	-0.0540	-0.0658	-0.0634	-0.0461	-0.0647	-0.0664	-0.0583	-0.0527	-0.0605	0.3989	-0.0724	-0.0763	-0.0717	-0.0769	-0.0475	-0.0675	-0.0684	-0.0764	0.1165
522.0000	-0.0877	-0.0823	-0.0809	-0.0847	-0.0770	-0.0801	-0.0881	-0.0798	-0.0865	-0.7766	-0.0841	-0.0959	-0.0919	-0.0910	-0.0937	-0.0981	-0.0965	-0.0900	-0.4766
523.0000	-0.0239	0.0410	0.0476	0.1230	0.0916	0.1157	-0.0281	-0.0192	-0.0253	0.1527	-0.0241	0.0491	0.0755	0.1167	0.1296	0.0492	-0.0265	-0.0232	-0.0240
524.0000	0.0000	0.0000	0.0000	0.0147	-0.0391	-0.0437	-0.0382	0.1237	0.2593	0.0149	0.0000	0.0000	0.0296	-0.0228	0.0214	0.0760	0.1144	0.1060	0.2406
525.0000	-0.0000	-0.0000	-0.0000	-0.0000	-0.0976	0.0090	-0.0956	-0.0972	-0.0896	0.3157	-0.0000	-0.0000	-0.0000	-0.0852	-0.0789	-0.0561	-0.0970	-0.0996	-0.0615
526.0000	-0.0000	-0.0000	-0.0000	-0.0000	-0.0000	-0.0000	-0.1359	-0.1996	-0.2067	-0.7550	-0.0000	-0.0000	-0.0000	-0.0000	-0.0000	-0.1748	-0.1725	-0.1865	-0.4632
527.0000	-0.0000	-0.0000	-0.0000	-0.0000	-0.0466	-0.0099	0.4083	0.2700	-0.0477	-0.1680	-0.0000	-0.0000	-0.0000	-0.0507	-0.0057	0.0870	0.3453	-0.0183	-0.3494
528.0000	-0.0000	-0.0000	-0.0000	-0.0000	-0.0000	-0.0000	-0.0497	-0.0631	0.1015	0.5093	-0.0000	-0.0000	-0.0000	-0.0000	-0.0000	-0.0467	-0.0373	-0.0481	0.7761
529.0000	-0.0000	-0.0000	-0.0000	-0.0000	-0.0773	-0.0603	-0.0288	0.0539	-0.0506	-0.2951	-0.0000	-0.0000	-0.0000	-0.0238	-0.0316	-0.0766	-0.0515	-0.0142	-0.0714
530.0000	-0.0000	-0.0000	-0.0000	-0.0000	-0.0000	-0.1121	-0.1304	-0.0739	-0.1304	-0.1880	-0.0000	-0.0000	-0.0000	-0.0000	0.0568	-0.1032	-0.0766	-0.0956	-0.4894
531.0000	0.0000	0.0000	0.2947	0.0842	0.0536	0.1586	0.0576	0.0265	0.0262	0.0907	0.0000	0.2310	0.1211	0.0763	0.1350	0.1457	0.0624	0.0637	0.3607
532.0000	-0.0000	-0.0000	-0.0000	-0.0000	-0.0000	-0.0000	-0.1696	-0.1931	-0.0099	-0.6055	-0.0000	-0.0000	-0.0000	-0.0000	-0.0000	-0.1167	-0.1302	-0.0468	0.0246
533.0000	-0.0000	-0.0000	-0.0000	-0.0000	-0.0000	-0.0000	0.0280	0.1948	0.1001	0.9515	-0.0000	-0.0000	-0.0000	-0.0000	-0.0000	0.1042	0.1699	0.0515	0.2996
534.0000	0.0000	0.0000	0.0000	0.0000	0.0000	0.2918	0.2626	0.3239	0.3728	1.0359	0.0000	0.0000	0.0000	0.0000	0.2114	0.3265	0.3138	0.3798	1.0650
535.0000	-0.0000	-0.0000	-0.0000	-0.0000	-0.0000	-0.0000	-0.1790	-0.1498	-0.1873	-0.4767	-0.0000	-0.0000	-0.0000	-0.0000	-0.0000	-0.1298	-0.1488	-0.1400	-0.3715
536.0000	-0.0000	-0.0000	-0.1267	-0.1242	-0.1270	-0.1280	-0.1252	-0.1251	-0.1279	-0.6979	-0.0000	-0.1274	-0.1282	-0.1273	-0.1145	-0.1263	-0.1263	-0.1260	-0.5225
537.0000	-0.0000	-0.0000	-0.0000	-0.0000	-0.0000	-0.0000	-0.1601	-0.0356	-0.1346	-0.4842	-0.0000	-0.0000	-0.0000	-0.0000	-0.0000	-0.0999	0.0217	-0.0084	0.1898
538.0000	-0.0000	-0.0000	-0.0000	-0.0000	-0.0000	0.0423	-0.0522	-0.0624	-0.0580	1.0448	-0.0000	-0.0000	-0.0000	-0.0000	0.1430	-0.0392	-0.0521	-0.0614	0.5898
539.0000	-0.0000	-0.0000	-0.0000	-0.0070	0.0788	0.0325	0.2258	0.0616	0.1285	0.7089	-0.0000	-0.0000	-0.0120	0.0115	0.0763	0.2546	0.2425	0.1040	0.5902
540.0000	-0.0000	-0.0000	-0.0000	-0.0359	0.0023	-0.0147	0.0292	0.1959	-0.0555	-0.4596	-0.0000	-0.0000	-0.0426	-0.0341	0.0435	0.0433	0.1309	0.1436	-0.2879
541.0000	0.0000	0.0000	0.0000	0.0000	-0.0148	-0.0094	-0.0008	0.1215	-0.0222	0.0333	0.0000	0.0000	0.0000	0.0819	0.0228	0.0399	0.0346	0.0432	0.1445
542.0000	-0.0000	-0.0000	0.2016	-0.0083	-0.0076	0.2750	0.2173	0.1382	0.0906	0.0432	-0.0000	0.1295	0.0311	-0.0063	0.0880	0.2191	0.2527	0.1525	0.2699
543.0000	0.0144	0.0115	-0.0127	-0.0097	0.1099	-0.0119	-0.0230	-0.0410	-0.0419	-0.2593	0.0148	0.0059	-0.0037	0.1611	0.0119	0.0108	-0.0149	-0.0326	-0.2387
544.0000	-0.0000	-0.0000	-0.3436	-0.1548	-0.1932	-0.3306	-0.2693	-0.4922	-0.2996	-1.5789	-0.0000	-0.2804	-0.1816	-0.2000	-0.3010	-0.3217	-0.3063	-0.4140	-1.4800
545.0000	-0.0000	-0.0000	-0.0000	-0.0000	-0.0000	-0.0000	-0.0713	0.0522	-0.0142	0.5347	-0.0000	-0.0000	-0.0000	-0.0000	-0.0000	-0.0671	0.0025	0.1915	-0.0056
546.0000	-0.0000	-0.0000	-0.0000	-0.0000	-0.0000	-0.0000	-0.1669	-0.1802	-0.1720	-0.2499	-0.0000	-0.0000	-0.0000	-0.0000	-0.0000	-0.0152	-0.0968	-0.0955	-0.2137
547.0000	-0.0326	-0.0453	-0.0454	-0.0310	-0.0110	0.0323	0.1261	-0.0427	-0.0302	-0.0935	-0.0436	-0.0442	0.0638	0.0959	-0.0360	-0.0035	-0.0358	-0.0193	0.2062
548.0000	-0.0000	-0.0000	-0.0000	-0.0000	-0.0000	-0.0000	-0.1872	-0.1720	-0.1242	-0.5725	-0.0000	-0.0000	-0.0000	-0.0000	-0.0000	-0.1450	-0.1812	-0.1236	-0.5931
549.0000	0.0000	0.0000	0.0000	0.0000	-0.0445	0.1831	0.0008	0.0075	0.2079	-0.0875	0.0000	0.0000	0.0000	-0.0238	0.0801	0.0572	-0.0234	0.0766	0.0625
550.0000	0.0000	0.0000	0.0000	-0.0638	-0.0450	-0.0633	0.0020	0.1667	-0.0678	-0.2946	0.0000	0.0000	0.0082	0.0015	0.0252	0.0440	0.1182	-0.0198	-0.3670
551.0000	-0.0000	-0.0000	-0.0000	-0.0000	-0.1060	-0.1505	-0.1644	-0.1368	-0.1658	-0.7665	-0.0000	-0.0000	-0.0000	-0.1392	-0.1560	-0.1431	-0.1587	-0.1533	-0.4882
552.0000	-0.0000	-0.0000	-0.0000	-0.0000	-0.0000	0.0017	-0.0480	-0.0399	0.0458	0.1354	-0.0000	-0.0000	-0.0000	-0.0000	-0.0759	-0.0376	0.0022	-0.0362	0.1803
553.0000	-0.0000	-0.0000	-0.0000	-0.0000	-0.0000	-0.0000	-0.0974	-0.1079	-0.1437	-0.3342	-0.0000	-0.0000	-0.0000	-0.0000	-0.0000	-0.0611	-0.0238	-0.0201	-0.2260
554.0000	-0.0172	-0.0088	-0.0163	-0.0182	-0.0021	0.1893	0.2137	0.3639	-0.0167	1.0660	-0.0101	0.0016	-0.0159	-0.0023	0.0807	0.2816	0.3729	0.2546	0.3257
555.0000	-0.0132	-0.0080	0.0250	0.0207	0.0404	-0.0011	0.0289	0.2968	0.1996	1.0574	-0.0098	0.0466	0.0309	0.0682	0.0341	0.0120	0.2009	0.2759	0.9312
556.0000	-0.0000	-0.0000	-0.0000	-0.0000	-0.0000	-0.0000	-0.4116	-0.5496	-0.4861	-1.2714	-0.0000	-0.0000	-0.0000	-0.0000	-0.0000	-0.3592	-0.4181	-0.3588	-0.9639
557.0000	0.0083	-0.0184	0.0111	0.0115	-0.0198	0.1651	0.0967	0.2894	-0.0202	0.8534	-0.0070	0.0059	0.0274	0.0218	0.1490	0.1462	0.1932	0.1075	0.7098
558.0000	0.0000	0.0000	0.0000	0.0000	0.0000	0.0000	-0.0211	-0.0039	0.0731	0.8477	0.0000	0.0000	0.0000	0.0000	0.0000	0.0604	0.0246	0.0915	0.5990
559.0000	-0.0000	-0.0000	-0.0000	-0.0000	-0.0000	-0.1897	-0.1893	-0.2049	-0.1807	-0.4717	-0.0000	-0.0000	-0.0000	-0.0000	-0.1395	-0.1817	-0.1807	-0.1818	-0.7089
560.0000	-0.0000	-0.0000	-0.0000	-0.0000	0.0292	-0.0387	0.1636	0.1120	-0.0044	0.6470	-0.0000	-0.0000	-0.0000	-0.0244	-0.0475	-0.0483	0.1748	0.0861	0.6730
561.0000	-0.0000	-0.0000	-0.0000	-0.0000	-0.0000	-0.0000	-0.4374	-0.4375	-0.4548	-1.1589	-0.0000	-0.0000	-0.0000	-0.0000	-0.0000	-0.3557	-0.3253	-0.3648	-0.8447
562.0000	0.0000	0.0000	0.0000	-0.0081	0.0758	0.1811	0.1401	0.0500	-0.0136	1.0657	0.0000	0.0000	0.2371	0.0579	0.1710	0.1375	0.1583	-0.0084	-0.0595
563.0000	-0.0000	-0.0000	-0.0000	-0.0000	-0.0000	-0.1554	-0.1437	-0.1516	-0.1298	0.0270	-0.0000	-0.0000	-0.0000	-0.0000	-0.1672	-0.1913	-0.1889	-0.1793	-0.3916
564.0000	-0.0589	0.0220	-0.0322	-0.0586	-0.0518	-0.0595	0.0017	-0.0576	0.0055	-0.8362	-0.0049	0.0484	-0.0397	-0.0374	-0.0290	0.0024	-0.0370	0.0121	0.1886
565.0000	-0.0000	-0.0000	-0.0000	-0.0000	-0.0000	-0.0000	-0.1576	-0.0550	-0.1840	-0.9265	-0.0000	-0.0000	-0.0000	-0.0000	-0.0000	-0.1996	-0.1624	-0.1707	-0.7833
566.0000	0.0000	0.0000	0.0000	0.0000	0.0000	-0.0719	-0.0621	-0.0575	0.0277	0.3505	0.0000	0.0000	0.0000	0.0000	0.0391	-0.0094	-0.0473	-0.0214	0.2713
567.0000	-0.0000	-0.0000	-0.0000	-0.0000	-0.0000	-0.0000	-0.0897	-0.1756	-0.1820	-0.5760	-0.0000	-0.0000	-0.0000	-0.0000	-0.0000	-0.1036	-0.0899	-0.1322	-0.3622
568.0000	-0.0644	-0.0522	-0.0487	-0.0376	-0.0862	-0.0743	-0.0746	-0.0514	-0.0681	1.1281	-0.1021	-0.0851	-0.0542	-0.1086	-0.1117	-0.1044	-0.0968	-0.0592	0.4149
569.0000	0.0000	0.0000	0.0000	0.0000	0.0000	-0.1433	-0.0124	-0.1392	-0.1353	-0.4400	0.0000	0.0000	0.0000	0.0000	-0.1251	-0.1152	-0.0440	-0.1104	-0.3519
570.0000	0.0000	0.0000	0.0000	0.0000	0.0000	-0.1443	-0.1410	-0.0863	-0.1390	-0.4222	0.0000	0.0000	0.0000	0.0000	-0.0710	-0.0370	-0.0840	-0.0574	-0.3265
571.0000	0.0000	0.0000	0.0000	0.0000	0.0000	0.0000	-0.1296	-0.0754	0.1381	-0.4956	0.0000	0.0000	0.0000	0.0000	0.0000	-0.0685	-0.1066	0.0150	-0.0079
572.0000	-0.0000	-0.0000	-0.0000	-0.0000	-0.0000	-0.0765	-0.1042	-0.0625	0.0510	-0.4301	-0.0000	-0.0000	-0.0000	-0.0000	-0.0570	-0.0381	-0.0859	0.0513	0.0292
573.0000	-0.0000	-0.0000	-0.0000	0.0005	-0.0542	-0.0796	-0.0796	-0.0665	-0.0579	-0.4903	-0.0000	-0.0000	-0.0350	0.0111	-0.0476	-0.0516	-0.0127	-0.0306	0.0263
574.0000	-0.0454	-0.0772	-0.0687	-0.0571	-0.0755	-0.0401	-0.0785	-0.0767	-0.0568	-0.7228	-0.0800	-0.0515	-0.0641	-0.0666	-0.0711	-0.0831	-0.0831	-0.0752	-0.4538
575.0000	-0.0000	-0.0000	-0.0000	-0.0286	0.0804	0.2906	0.0093	0.1361	0.2112	0.1247	-0.0000	-0.0000	-0.0273	0.0247	0.1677	0.0521	0.0187	0.2770	0.6226
576.0000	-0.0000	-0.0000	-0.0000	-0.0000	-0.0000	-0.0000	-0.2017	-0.1816	-0.2018	-0.4555	-0.0000	-0.0000	-0.0000	-0.0000	-0.0000	-0.1698	-0.1778	-0.1468	-0.3375
577.0000	0.0282	-0.0207	0.1649	0.0062	-0.0240	-0.0127	0.2680	-0.0163	-0.0036	0.5943	0.0144	-0.0033	0.0104	-0.0321	-0.0145	0.0670	0.0436	0.0138	0.6595
578.0000	-0.1720	-0.1571	-0.1502	-0.1942	-0.1911	-0.1640	-0.0984	-0.1437	-0.2100	-0.7603	-0.1229	-0.2230	-0.2474	-0.2194	-0.1986	-0.1852	-0.1735	-0.1829	-0.8057
579.0000	0.0218	0.0326	0.0676	0.0845	0.0375	0.1576	0.1591	0.1194	0.2321	0.6529	0.0179	0.0766	0.0874	0.0578	0.1889	0.2035	0.1308	0.1696	0.7834
580.0000	-0.0000	-0.0000	-0.0000	-0.0000	-0.0845	-0.0869	-0.0680	-0.0620	-0.0799	0.3447	-0.0000	-0.0000	-0.0000	-0.0903	-0.0931	-0.0939	-0.0821	-0.0846	0.2402
581.0000	0.1438	0.1748	-0.0212	-0.0155	-0.0213	-0.0064	0.0718	-0.0158	-0.0124	1.3810	0.1097	0.0339	-0.0154	-0.0213	-0.0142	0.0031	-0.0044	-0.0135	1.4570
582.0000	-0.0000	-0.0000	-0.0000	-0.0000	-0.0000	-0.0000	0.0565	0.4185	-0.0243	0.1316	-0.0000	-0.0000	-0.0000	-0.0000	-0.0000	0.1249	0.3024	-0.0150	0.2570
583.0000	-0.0000	-0.0000	-0.0000	-0.0000	-0.0000	-0.0000	-0.6023	-0.5520	-0.4676	-1.5074	-0.0000	-0.0000	-0.0000	-0.0000	-0.0000	-0.3781	-0.4714	-0.4304	-1.2262
584.0000	-0.0000	-0.0000	-0.0000	-0.0000	-0.0000	-0.0000	0.0580	0.4375	0.1211	-0.5463	-0.0000	-0.0000	-0.0000	-0.0000	-0.0000	0.0918	0.1099	0.1362	0.2534
585.0000	0.0000	0.0000	0.0000	0.0000	0.0000	0.0000	0.0863	0.0175	0.1848	1.3143	0.0000	0.0000	0.0000	0.0000	0.0000	0.1984	0.1238	0.0905	1.2720
586.0000	-0.0000	-0.0000	-0.0000	-0.0733	-0.0352	-0.0622	-0.0726	-0.0389	-0.0686	0.2886	-0.0000	-0.0000	0.0064	-0.0301	0.0036	-0.0594	-0.0239	-0.0294	0.0282
587.0000	-0.0000	-0.0000	-0.0000	-0.0000	-0.0000	-0.0000	-0.0417	-0.0063	-0.0836	-0.2351	-0.0000	-0.0000	-0.0000	-0.0000	-0.0000	0.0118	0.0002	0.0453	-0.0737
588.0000	-0.0194	-0.0022	0.0135	0.0376	0.0480	0.1284	0.0375	0.1173	0.1667	0.5596	0.0033	0.0022	0.0463	0.0400	0.1646	0.1347	0.1025	0.2274	0.6133
589.0000	-0.0179	0.0006	0.0249	-0.0115	0.0140	0.0298	0.1554	0.3008	-0.0096	1.0779	-0.0016	0.0991	-0.0164	-0.0169	0.0326	0.1452	0.3734	0.0153	0.5864
590.0000	-0.0000	-0.0000	-0.0000	-0.0000	0.1655	-0.0953	-0.0880	-0.0992	-0.0961	-0.6383	-0.0000	-0.0000	-0.0000	0.0066	-0.0944	-0.1116	-0.1004	-0.1109	-0.6361
591.0000	-0.0000	-0.0000	-0.0000	-0.0000	-0.0000	-0.0426	-0.0402	-0.0411	0.5191	1.0613	-0.0000	-0.0000	-0.0000	-0.0000	-0.0302	-0.0513	-0.0523	0.0773	1.2685
592.0000	-0.0240	-0.0179	-0.0240	0.0607	0.0056	0.0552	0.0723	0.0195	-0.0127	0.8866	-0.0194	-0.0159	0.0125	0.0745	0.0648	0.0823	0.0290	-0.0162	-0.0221
593.0000	-0.0000	-0.0000	-0.0000	-0.0168	-0.0199	-0.0086	0.2646	0.3290	0.3547	0.8347	-0.0000	-0.0000	-0.0165	-0.0234	-0.0084	0.0555	0.3452	0.4398	0.9377
594.0000	-0.0000	0.0191	0.2692	0.1837	0.0520	0.0868	0.2907	0.0507	0.2266	0.9924	-0.0023	0.2372	0.2436	0.0825	0.0579	0.2486	0.2553	0.1935	0.9835
595.0000	-0.0000	-0.0000	-0.0000	0.0594	0.2649	0.0572	0.1133	0.2426	0.3547	0.3029	-0.0000	-0.0000	0.0275	0.2398	0.2239	0.0510	0.1490	0.3078	0.9665
596.0000	-0.0000	-0.0000	-0.0000	-0.0000	-0.0000	-0.0000	-0.2269	-0.2599	-0.2344	-0.3007	-0.0000	-0.0000	-0.0000	-0.0000	-0.0000	-0.3099	-0.2749	-0.3729	-0.7607
597.0000	-0.0000	-0.0000	-0.0000	-0.0000	-0.0000	-0.0000	-0.1102	-0.0949	0.5095	-0.7604	-0.0000	-0.0000	-0.0000	-0.0000	-0.0000	-0.1352	-0.1124	-0.0072	-0.1741
598.0000	-0.0000	-0.0000	-0.0000	0.0775	0.0804	0.0753	0.1535	0.3117	0.1348	1.0176	-0.0000	-0.0000	0.0358	0.0884	0.1048	0.1232	0.3324	0.2330	0.7833
599.0000	-0.0000	-0.0000	-0.0000	-0.0000	-0.0000	-0.0000	-0.1920	-0.1910	-0.1264	-0.5239	-0.0000	-0.0000	-0.0000	-0.0000	-0.0000	-0.1388	-0.0987	-0.0842	-0.1093
600.0000	-0.0000	-0.0000	-0.0000	-0.0000	-0.0000	-0.0000	-0.3620	-0.7478	-0.3301	-1.7839	-0.0000	-0.0000	-0.0000	-0.0000	-0.0000	-0.4076	-0.7034	-0.5728	-2.3005
601.0000	-0.0000	-0.0000	-0.0000	-0.0756	-0.0458	-0.0334	-0.0607	-0.0197	-0.0773	-0.2335	-0.0000	-0.0000	-0.0527	-0.0466	-0.0357	-0.0053	0.0089	0.0165	-0.2264
602.0000	-0.0000	-0.0000	-0.0000	-0.0000	-0.0000	-0.0389	-0.0707	-0.0607	0.0653	0.8008	-0.0000	-0.0000	-0.0000	-0.0000	0.1509	-0.0755	-0.0769	-0.0094	0.3336
603.0000	-0.0000	-0.0000	-0.0000	-0.0000	-0.0000	0.1125	-0.0770	-0.0491	-0.0865	0.1003	-0.0000	-0.0000	-0.0000	-0.0000	0.0600	0.0382	-0.0646	-0.0823	0.0254
604.0000	-0.0000	-0.0000	-0.0000	-0.0000	-0.0000	-0.0000	-0.1904	-0.2144	-0.1661	-0.3167	-0.0000	-0.0000	-0.0000	-0.0000	-0.0000	-0.1956	-0.1856	-0.1956	-0.3231
605.0000	-0.0000	-0.0000	-0.0000	-0.0000	-0.0000	-0.0000	-0.0514	-0.0996	0.2114	-0.0576	-0.0000	-0.0000	-0.0000	-0.0000	-0.0000	-0.0791	-0.0778	-0.0851	0.1747
606.0000	-0.0000	-0.0000	-0.0000	-0.0000	-0.0000	-0.0000	-0.2446	-0.2663	-0.2707	-0.5776	-0.0000	-0.0000	-0.0000	-0.0000	-0.0000	-0.1469	-0.1461	-0.1445	0.1438
607.0000	-0.0000	-0.0000	-0.0000	-0.0818	-0.0736	-0.0608	-0.0901	-0.0774	0.1159	-0.2531	-0.0000	-0.0000	-0.0858	-0.0845	-0.0851	-0.0840	-0.0846	0.0204	0.2096
608.0000	-0.0000	-0.0000	-0.0000	-0.0000	-0.0000	-0.0000	-0.0236	0.2628	0.3338	-0.1315	-0.0000	-0.0000	-0.0000	-0.0000	-0.0000	-0.0499	0.1835	0.3386	0.5540
609.0000	-0.0000	-0.0000	-0.0000	-0.0000	-0.0000	0.0981	-0.0581	0.0015	-0.0769	0.0419	-0.0000	-0.0000	-0.0000	-0.0000	0.1078	0.0242	-0.0407	-0.0672	-0.0752
610.0000	-0.0000	-0.0000	-0.0000	-0.0000	-0.0000	-0.0000	-0.2802	-0.2297	-0.2795	-0.6153	-0.0000	-0.0000	-0.0000	-0.0000	-0.0000	-0.1939	-0.1946	-0.1891	-0.1832
611.0000	0.0000	0.0000	0.0000	0.0000	0.0000	0.0000	-0.0965	0.0793	-0.1005	-0.3516	0.0000	0.0000	0.0000	0.0000	0.0000	0.0709	0.0586	0.0394	0.1954
612.0000	-0.0000	-0.0000	-0.0000	-0.0000	-0.0000	-0.1393	-0.0735	-0.1534	-0.1522	-0.4448	-0.0000	-0.0000	-0.0000	-0.0000	-0.1367	-0.1638	-0.1570	-0.1524	-0.2391
613.0000	-0.0000	-0.0000	-0.0000	-0.0332	-0.1055	-0.1118	-0.1064	-0.1112	-0.0661	-0.6864	-0.0000	-0.0000	-0.0634	-0.0879	-0.0936	-0.0962	-0.0958	-0.0730	-0.1480
614.0000	-0.0000	-0.0000	-0.0000	-0.0000	-0.0000	-0.0000	-0.2483	-0.2549	-0.2594	-0.5414	-0.0000	-0.0000	-0.0000	-0.0000	-0.0000	-0.2539	-0.2550	-0.2548	-0.6642
615.0000	-0.0000	-0.0000	-0.0000	-0.0000	-0.0000	-0.0000	-0.4742	-0.6401	-0.4062	-1.3665	-0.0000	-0.0000	-0.0000	-0.0000	-0.0000	-0.4945	-0.3854	-0.5538	-1.2712
616.0000	-0.0000	-0.0000	-0.0000	-0.0000	-0.0000	-0.0000	0.0641	-0.0332	0.0916	0.5081	-0.0000	-0.0000	-0.0000	-0.0000	-0.0000	0.1169	0.0614	0.0611	0.6604
617.0000	-0.0000	-0.1659	-0.1736	-0.1485	-0.1435	-0.1903	-0.1283	-0.1724	-0.1012	-0.9336	-0.1531	-0.1643	-0.1622	-0.1377	-0.1618	-0.1391	-0.1627	-0.1684	-0.8799
618.0000	0.0125	0.0283	0.0506	0.0637	0.0927	0.1192	0.2930	0.1476	0.3109	0.3553	0.0888	0.0596	0.0479	0.0936	0.1261	0.1858	0.2124	0.2201	0.9795
619.0000	-0.0000	-0.0000	-0.0000	-0.0000	-0.0000	-0.0000	-0.0351	-0.1071	-0.0789	-0.3680	-0.0000	-0.0000	-0.0000	-0.0000	-0.0000	-0.0936	-0.0176	-0.0344	-0.2721
620.0000	-0.0000	-0.0000	-0.0000	-0.0000	-0.0000	-0.0000	-0.2846	-0.2683	-0.2828	-0.8986	-0.0000	-0.0000	-0.0000	-0.0000	-0.0000	-0.2176	-0.2213	-0.2236	-0.4973
621.0000	-0.0233	-0.0189	-0.0205	0.0033	-0.0152	-0.0233	0.0009	0.0371	0.4241	1.3858	-0.0192	-0.0171	0.0195	0.0282	-0.0177	0.0100	0.0555	0.3974	1.1666
622.0000	-0.0000	-0.0000	-0.0000	-0.0000	-0.0000	-0.0000	-0.1937	-0.2271	-0.0452	-1.0591	-0.0000	-0.0000	-0.0000	-0.0000	-0.0000	-0.2088	-0.1849	-0.0570	-0.7846
623.0000	-0.0000	-0.0000	-0.0000	-0.1027	-0.0987	-0.0972	-0.1127	-0.1137	-0.1152	-0.3307	-0.0000	-0.0000	-0.0964	-0.0960	-0.0821	-0.0694	-0.0906	-0.0986	-0.2950
624.0000	0.0125	0.0178	-0.0071	0.0081	-0.0160	0.1435	0.1607	0.1455	0.0903	0.9354	0.0394	0.0363	0.0420	0.0380	0.0642	0.1629	0.1884	0.0627	0.5026
625.0000	-0.0000	-0.0000	-0.0000	-0.0000	-0.1368	-0.1255	-0.1343	-0.1311	-0.1239	-0.1634	-0.0000	-0.0000	-0.0000	-0.1417	-0.1509	-0.1540	-0.1524	-0.1434	-0.2711
626.0000	-0.0996	-0.1511	-0.1773	-0.1110	-0.1776	-0.1524	-0.1816	-0.1620	-0.1561	-0.7491	-0.1331	-0.1496	-0.1443	-0.1358	-0.1497	-0.1653	-0.1638	-0.1411	-0.5776
627.0000	-0.0000	-0.0000	-0.0000	-0.0000	-0.1741	-0.1296	-0.1426	-0.1331	-0.1773	-1.3828	-0.0000	-0.0000	-0.0000	-0.1085	-0.1376	-0.1355	-0.1222	-0.1184	-0.8612
628.0000	-0.0000	-0.0000	-0.0000	-0.0000	-0.0610	-0.0923	-0.0834	-0.0992	-0.0584	-0.4438	-0.0000	-0.0000	-0.0000	-0.0684	-0.0437	-0.0395	-0.0266	-0.0469	0.0167
629.0000	-0.0000	-0.0000	-0.0217	-0.0219	0.1630	0.0343	0.0662	0.1390	0.1817	1.0490	-0.0000	-0.0195	-0.0193	0.0527	0.1010	0.1563	0.1336	0.2669	1.0379
630.0000	-0.0000	-0.0000	-0.0000	-0.0000	-0.0000	-0.0000	0.2383	0.0922	0.3102	-0.2126	-0.0000	-0.0000	-0.0000	-0.0000	-0.0000	0.1656	0.0552	0.1453	0.3742
631.0000	-0.0000	-0.0000	-0.0000	-0.0000	-0.0000	-0.0000	-0.1975	-0.1996	-0.2079	-0.3476	-0.0000	-0.0000	-0.0000	-0.0000	-0.0000	-0.0710	-0.1569	-0.1261	-0.4057
632.0000	0.0000	0.0000	0.0000	0.0000	0.0000	0.0000	0.1218	0.1475	0.4288	0.6052	0.0000	0.0000	0.0000	0.0000	0.0000	0.1984	0.1696	0.2417	0.7599
633.0000	-0.0000	-0.0000	-0.0000	-0.0000	-0.0000	0.2622	0.3097	-0.0081	0.0302	-0.1922	-0.0000	-0.0000	-0.0000	-0.0000	0.0851	0.2919	0.0483	0.0247	0.2560
634.0000	0.0151	0.0059	0.0373	0.0822	0.0595	-0.0191	-0.0131	-0.0141	0.1684	-0.4217	0.0574	0.0460	0.0647	0.1020	0.0104	-0.0043	0.0116	0.0562	0.1148
635.0000	0.0000	0.0000	0.0000	0.0000	0.0000	0.0000	-0.0055	0.5824	0.5417	1.0760	0.0000	0.0000	0.0000	0.0000	0.0000	0.1290	0.2297	0.6168	1.0201
636.0000	-0.0122	0.0165	-0.0138	0.0233	0.0829	0.1356	0.2184	0.1269	0.1988	0.7452	0.0091	0.0036	-0.0040	0.0927	0.1238	0.2647	0.1502	0.1415	0.6823
637.0000	-0.0000	-0.0000	-0.0000	-0.0000	-0.0000	-0.1286	-0.1135	-0.1285	-0.1235	0.2795	-0.0000	-0.0000	-0.0000	-0.0000	-0.1040	-0.1005	-0.1024	-0.0957	0.2138
638.0000	-0.0000	0.0352	-0.0637	-0.0626	-0.0083	-0.0591	-0.0628	-0.0628	-0.0594	0.0911	-0.0184	-0.0274	-0.0462	-0.0591	-0.0676	-0.0719	-0.0539	-0.0509	-0.7109
639.0000	-0.0000	-0.0000	-0.0000	-0.0000	-0.0000	-0.0000	-0.1098	-0.1098	-0.0871	0.6754	-0.0000	-0.0000	-0.0000	-0.0000	-0.0000	-0.1232	-0.1386	-0.1336	0.2081
640.0000	-0.0000	-0.0000	-0.0000	-0.0000	-0.0468	-0.1117	-0.0951	-0.1211	-0.1239	-0.1528	-0.0000	-0.0000	-0.0000	-0.1159	-0.0865	-0.1249	-0.1404	-0.1383	-0.4717
641.0000	-0.0000	-0.0000	-0.0000	-0.0000	-0.2979	-0.2739	-0.3324	-0.2934	-0.2012	-0.9197	-0.0000	-0.0000	-0.0000	-0.2329	-0.2812	-0.3108	-0.3175	-0.2474	-0.9042
642.0000	-0.0000	-0.0000	-0.0000	-0.0000	0.2261	0.3409	0.0855	0.1299	0.1093	0.6040	-0.0000	-0.0000	-0.0000	0.1446	0.2987	0.2358	0.1641	0.1739	0.6544
643.0000	0.0000	0.0000	0.0000	0.0000	0.0000	0.0187	0.0350	0.0484	0.1777	0.2690	0.0000	0.0000	0.0000	0.0000	-0.0088	0.0103	0.0461	0.1836	0.4236
